{"learner":{"attributes":{"best_iteration":"477","best_score":"0.28744291387492854"},"feature_names":["Age","Gender","BMI","WaistCircumference","SBP","DBP","Glucose","HDL","LDL","Triglycerides","Smoking","Alcohol","HbA1c","SerumCreatinine","ALT","AST","CRP","PhysicalActivity","eGFR"],"feature_types":["float","float","float","float","float","float","float","float","float","float","float","float","float","float","float","float","float","float","float"],"gradient_booster":{"model":{"gbtree_model_param":{"num_parallel_tree":"1","num_trees":"500"},"iteration_indptr":[0,1,2,3,4,5,6,7,8,9,10,11,12,13,14,15,16,17,18,19,20,21,22,23,24,25,26,27,28,29,30,31,32,33,34,35,36,37,38,39,40,41,42,43,44,45,46,47,48,49,50,51,52,53,54,55,56,57,58,59,60,61,62,63,64,65,66,67,68,69,70,71,72,73,74,75,76,77,78,79,80,81,82,83,84,85,86,87,88,89,90,91,92,93,94,95,96,97,98,99,100,101,102,103,104,105,106,107,108,109,110,111,112,113,114,115,116,117,118,119,120,121,122,123,124,125,126,127,128,129,130,131,132,133,134,135,136,137,138,139,140,141,142,143,144,145,146,147,148,149,150,151,152,153,154,155,156,157,158,159,160,161,162,163,164,165,166,167,168,169,170,171,172,173,174,175,176,177,178,179,180,181,182,183,184,185,186,187,188,189,190,191,192,193,194,195,196,197,198,199,200,201,202,203,204,205,206,207,208,209,210,211,212,213,214,215,216,217,218,219,220,221,222,223,224,225,226,227,228,229,230,231,232,233,234,235,236,237,238,239,240,241,242,243,244,245,246,247,248,249,250,251,252,253,254,255,256,257,258,259,260,261,262,263,264,265,266,267,268,269,270,271,272,273,274,275,276,277,278,279,280,281,282,283,284,285,286,287,288,289,290,291,292,293,294,295,296,297,298,299,300,301,302,303,304,305,306,307,308,309,310,311,312,313,314,315,316,317,318,319,320,321,322,323,324,325,326,327,328,329,330,331,332,333,334,335,336,337,338,339,340,341,342,343,344,345,346,347,348,349,350,351,352,353,354,355,356,357,358,359,360,361,362,363,364,365,366,367,368,369,370,371,372,373,374,375,376,377,378,379,380,381,382,383,384,385,386,387,388,389,390,391,392,393,394,395,396,397,398,399,400,401,402,403,404,405,406,407,408,409,410,411,412,413,414,415,416,417,418,419,420,421,422,423,424,425,426,427,428,429,430,431,432,433,434,435,436,437,438,439,440,441,442,443,444,445,446,447,448,449,450,451,452,453,454,455,456,457,458,459,460,461,462,463,464,465,466,467,468,469,470,471,472,473,474,475,476,477,478,479,480,481,482,483,484,485,486,487,488,489,490,491,492,493,494,495,496,497,498,499,500],"tree_info":[0,0,0,0,0,0,0,0,0,0,0,0,0,0,0,0,0,0,0,0,0,0,0,0,0,0,0,0,0,0,0,0,0,0,0,0,0,0,0,0,0,0,0,0,0,0,0,0,0,0,0,0,0,0,0,0,0,0,0,0,0,0,0,0,0,0,0,0,0,0,0,0,0,0,0,0,0,0,0,0,0,0,0,0,0,0,0,0,0,0,0,0,0,0,0,0,0,0,0,0,0,0,0,0,0,0,0,0,0,0,0,0,0,0,0,0,0,0,0,0,0,0,0,0,0,0,0,0,0,0,0,0,0,0,0,0,0,0,0,0,0,0,0,0,0,0,0,0,0,0,0,0,0,0,0,0,0,0,0,0,0,0,0,0,0,0,0,0,0,0,0,0,0,0,0,0,0,0,0,0,0,0,0,0,0,0,0,0,0,0,0,0,0,0,0,0,0,0,0,0,0,0,0,0,0,0,0,0,0,0,0,0,0,0,0,0,0,0,0,0,0,0,0,0,0,0,0,0,0,0,0,0,0,0,0,0,0,0,0,0,0,0,0,0,0,0,0,0,0,0,0,0,0,0,0,0,0,0,0,0,0,0,0,0,0,0,0,0,0,0,0,0,0,0,0,0,0,0,0,0,0,0,0,0,0,0,0,0,0,0,0,0,0,0,0,0,0,0,0,0,0,0,0,0,0,0,0,0,0,0,0,0,0,0,0,0,0,0,0,0,0,0,0,0,0,0,0,0,0,0,0,0,0,0,0,0,0,0,0,0,0,0,0,0,0,0,0,0,0,0,0,0,0,0,0,0,0,0,0,0,0,0,0,0,0,0,0,0,0,0,0,0,0,0,0,0,0,0,0,0,0,0,0,0,0,0,0,0,0,0,0,0,0,0,0,0,0,0,0,0,0,0,0,0,0,0,0,0,0,0,0,0,0,0,0,0,0,0,0,0,0,0,0,0,0,0,0,0,0,0,0,0,0,0,0,0,0,0,0,0,0,0,0,0,0,0,0,0,0,0,0,0,0,0,0,0,0,0,0,0,0,0,0,0,0,0,0,0,0,0,0,0,0,0,0,0,0,0,0,0,0,0,0,0,0,0,0,0,0,0,0,0,0,0,0,0,0,0,0,0],"trees":[{"base_weights":[9.510926E-6,-9.579946E-2,1.2147609E0,-1.0961733E-2,-9.760738E-2,1.5360703E0,-2.2452189E-1,2.7367005E-2,-9.169644E-2,4.0581724E-1,1.7263212E0,-7.970447E-2,6.320689E-2,-7.100037E-3,2.1720009E-2,7.345675E-2,-6.52073E-2,4.591595E-2,9.1073126E-2],"categories":[],"categories_nodes":[],"categories_segments":[],"categories_sizes":[],"default_left":[0,0,0,0,0,0,0,0,0,0,0,0,0,0,0,0,0,0,0],"id":0,"left_children":[1,3,5,7,-1,9,11,13,-1,15,17,-1,-1,-1,-1,-1,-1,-1,-1],"loss_changes":[6.0316063E1,7.563023E1,1.7865849E1,3.221754E1,0E0,5.9869156E0,1.7891144E1,3.1213531E1,0E0,1.2439973E1,3.50029E-1,0E0,0E0,0E0,0E0,0E0,0E0,0E0,0E0],"parents":[2147483647,0,0,1,1,2,2,3,3,5,5,6,6,7,7,9,9,10,10],"right_children":[2,4,6,8,-1,10,12,14,-1,16,18,-1,-1,-1,-1,-1,-1,-1,-1],"split_conditions":[4.46E1,7.3E1,1E0,1.79E2,-9.760738E-2,1.5E1,1.443E2,5.8E1,-9.169644E-2,1E0,7.3E1,-7.970447E-2,6.320689E-2,-7.100037E-3,2.1720009E-2,7.345675E-2,-6.52073E-2,4.591595E-2,9.1073126E-2],"split_indices":[2,7,10,6,0,14,3,0,0,0,5,0,0,0,0,0,0,0,0],"split_type":[0,0,0,0,0,0,0,0,0,0,0,0,0,0,0,0,0,0,0],"sum_hessian":[5.1625024E2,4.7936337E2,3.6886856E1,4.5937518E2,1.998819E1,3.0100002E1,6.786855E0,4.5088022E2,8.49498E0,4.7880363E0,2.5311966E1,3.497933E0,3.288922E0,3.1885486E2,1.3202536E2,3.0390697E0,1.7489665E0,3.7886267E0,2.152334E1],"tree_param":{"num_deleted":"0","num_feature":"19","num_nodes":"19","size_leaf_vector":"1"}},{"base_weights":[-6.724675E-5,-9.137501E-2,1.1610261E0,-1.0578827E-2,-9.295855E-2,1.4691105E0,-2.1556582E-1,2.6035324E-2,-8.758287E-2,3.8758722E-1,1.6515145E0,-7.699213E-2,6.1310917E-2,-6.7450376E-3,2.0655725E-2,7.086369E-2,-6.31111E-2,8.7381504E-2,4.2687252E-2],"categories":[],"categories_nodes":[],"categories_segments":[],"categories_sizes":[],"default_left":[0,0,0,0,0,0,0,0,0,0,0,0,0,0,0,0,0,0,0],"id":1,"left_children":[1,3,5,7,-1,9,11,13,-1,15,17,-1,-1,-1,-1,-1,-1,-1,-1],"loss_changes":[5.492771E1,6.8586426E1,1.6336441E1,2.939154E1,0E0,5.4740524E0,1.6742231E1,2.820348E1,0E0,1.1606956E1,5.179901E-1,0E0,0E0,0E0,0E0,0E0,0E0,0E0,0E0],"parents":[2147483647,0,0,1,1,2,2,3,3,5,5,6,6,7,7,9,9,10,10],"right_children":[2,4,6,8,-1,10,12,14,-1,16,18,-1,-1,-1,-1,-1,-1,-1,-1],"split_conditions":[4.46E1,7.3E1,1E0,1.79E2,-9.295855E-2,1.5E1,1.33E2,5.8E1,-8.758287E-2,1E0,1.16E2,-7.699213E-2,6.1310917E-2,-6.7450376E-3,2.0655725E-2,7.086369E-2,-6.31111E-2,8.7381504E-2,4.2687252E-2],"split_indices":[2,7,10,6,0,14,6,0,0,0,9,0,0,0,0,0,0,0,0],"split_type":[0,0,0,0,0,0,0,0,0,0,0,0,0,0,0,0,0,0,0],"sum_hessian":[5.16103E2,4.7933005E2,3.6772957E1,4.5934207E2,1.9988003E1,2.9993202E1,6.779754E0,4.50846E2,8.496057E0,4.7794456E0,2.5213757E1,3.4984348E0,3.2813196E0,3.1890585E2,1.3194014E2,3.0295658E0,1.7498796E0,2.1440008E1,3.7737496E0],"tree_param":{"num_deleted":"0","num_feature":"19","num_nodes":"19","size_leaf_vector":"1"}},{"base_weights":[-1.4221008E-4,-8.7194666E-2,1.1128072E0,-1.0212097E-2,-8.8914864E-2,1.4092556E0,-2.0735048E-1,2.4770785E-2,-8.3956055E-2,3.708835E-1,1.5848408E0,-7.4132554E-2,5.91479E-2,2.8686484E-3,-8.9600734E-2,6.84926E-2,-6.1163336E-2,8.3835244E-2,4.110979E-2],"categories":[],"categories_nodes":[],"categories_segments":[],"categories_sizes":[],"default_left":[0,0,0,0,0,0,0,0,0,0,0,0,0,0,0,0,0,0,0],"id":2,"left_children":[1,3,5,7,-1,9,11,13,-1,15,17,-1,-1,-1,-1,-1,-1,-1,-1],"loss_changes":[5.0157135E1,6.2489143E1,1.4989948E1,2.691196E1,0E0,5.0272255E0,1.5510363E1,2.6862104E1,0E0,1.0848473E1,4.455719E-1,0E0,0E0,0E0,0E0,0E0,0E0,0E0,0E0],"parents":[2147483647,0,0,1,1,2,2,3,3,5,5,6,6,7,7,9,9,10,10],"right_children":[2,4,6,8,-1,10,12,14,-1,16,18,-1,-1,-1,-1,-1,-1,-1,-1],"split_conditions":[4.46E1,7.3E1,1E0,1.79E2,-8.8914864E-2,1.5E1,1.33E2,4.08E1,-8.3956055E-2,1E0,1.16E2,-7.4132554E-2,5.91479E-2,2.8686484E-3,-8.9600734E-2,6.84926E-2,-6.1163336E-2,8.3835244E-2,4.110979E-2],"split_indices":[2,7,10,6,0,14,6,2,0,0,9,0,0,0,0,0,0,0,0],"split_type":[0,0,0,0,0,0,0,0,0,0,0,0,0,0,0,0,0,0,0],"sum_hessian":[5.156963E2,4.791406E2,3.655567E1,4.5924103E2,1.9899584E1,2.9797087E1,6.7585855E0,4.507772E2,8.463821E0,4.7599664E0,2.5037119E1,3.4904506E0,3.268135E0,4.4378195E2,6.995238E0,3.0127428E0,1.7472235E0,2.1275812E1,3.761307E0],"tree_param":{"num_deleted":"0","num_feature":"19","num_nodes":"19","size_leaf_vector":"1"}},{"base_weights":[-4.0853187E-4,-8.343861E-2,1.0694163E0,-1.00788595E-2,-8.5366696E-2,1.3555343E0,-1.9984508E-1,6.959951E-2,-7.049799E-1,3.5551247E-1,1.5251845E0,-7.1900554E-2,5.7508867E-2,-4.950869E-2,8.5189445E-3,2.7411615E-2,-7.682034E-2,6.631502E-2,-5.934828E-2,3.8306322E-2,8.093883E-2],"categories":[],"categories_nodes":[],"categories_segments":[],"categories_sizes":[],"default_left":[0,0,0,0,0,0,0,0,0,0,0,0,0,0,0,0,0,0,0,0,0],"id":3,"left_children":[1,3,5,7,-1,9,11,13,15,17,19,-1,-1,-1,-1,-1,-1,-1,-1,-1,-1],"loss_changes":[4.593562E1,5.7150566E1,1.3796574E1,2.5526762E1,0E0,4.6359177E0,1.4563013E1,4.435574E1,5.0255577E1,1.01557455E1,5.920372E-1,0E0,0E0,0E0,0E0,0E0,0E0,0E0,0E0,0E0,0E0],"parents":[2147483647,0,0,1,1,2,2,3,3,5,5,6,6,7,7,8,8,9,9,10,10],"right_children":[2,4,6,8,-1,10,12,14,16,18,20,-1,-1,-1,-1,-1,-1,-1,-1,-1,-1],"split_conditions":[4.46E1,7.3E1,1E0,1.7937703E2,-8.5366696E-2,1.5E1,1.443E2,4.5E1,7.8E1,1E0,7.3E1,-7.1900554E-2,5.7508867E-2,-4.950869E-2,8.5189445E-3,2.7411615E-2,-7.682034E-2,6.631502E-2,-5.934828E-2,3.8306322E-2,8.093883E-2],"split_indices":[2,7,10,18,0,14,3,9,8,0,5,0,0,0,0,0,0,0,0,0,0],"split_type":[0,0,0,0,0,0,0,0,0,0,0,0,0,0,0,0,0,0,0,0,0],"sum_hessian":[5.1512756E2,4.7888303E2,3.6244545E1,4.591472E2,1.9735847E1,2.9521751E1,6.722791E0,4.1272354E2,4.642364E1,4.730843E0,2.4790909E1,3.4726725E0,3.250119E0,3.5073483E1,3.7765005E2,1.8651218E1,2.7772425E1,2.9894962E0,1.7413467E0,3.7294884E0,2.106142E1],"tree_param":{"num_deleted":"0","num_feature":"19","num_nodes":"21","size_leaf_vector":"1"}},{"base_weights":[-5.04734E-4,-7.970033E-2,1.0299693E0,-9.76988E-3,-8.222925E-2,2.7548558E-1,1.5067325E0,-1.5887295E-1,3.4942997E-1,-8.025433E-2,7.62007E-2,8.073123E-2,3.761776E-2,5.1332586E-3,-3.385879E-2,-8.319783E-3,5.0475545E-2],"categories":[],"categories_nodes":[],"categories_segments":[],"categories_sizes":[],"default_left":[0,0,0,0,0,0,0,0,0,0,0,0,0,0,0,0,0],"id":4,"left_children":[1,3,5,7,-1,9,11,13,15,-1,-1,-1,-1,-1,-1,-1,-1],"loss_changes":[4.2145996E1,5.246528E1,1.2842937E1,2.4695665E1,0E0,3.8829273E1,6.0528183E-1,4.4233696E1,4.622431E1,0E0,0E0,0E0,0E0,0E0,0E0,0E0,0E0],"parents":[2147483647,0,0,1,1,2,2,3,3,5,5,6,6,7,7,8,8],"right_children":[2,4,6,8,-1,10,12,14,16,-1,-1,-1,-1,-1,-1,-1,-1],"split_conditions":[4.46E1,7.3E1,1E0,5.8E1,-8.222925E-2,7.8E1,5.3E1,2.1E1,1.26E2,-8.025433E-2,7.62007E-2,8.073123E-2,3.761776E-2,5.1332586E-3,-3.385879E-2,-8.319783E-3,5.0475545E-2],"split_indices":[2,7,13,0,0,7,0,15,4,0,0,0,0,0,0,0,0],"split_type":[0,0,0,0,0,0,0,0,0,0,0,0,0,0,0,0,0],"sum_hessian":[5.1443225E2,4.785747E2,3.5857513E1,4.5906653E2,1.9508192E1,1.4495704E1,2.1361809E1,3.2480032E2,1.342662E2,5.6699166E0,8.825787E0,1.7691244E1,3.6705654E0,2.1640382E2,1.0839649E2,7.578854E1,5.847766E1],"tree_param":{"num_deleted":"0","num_feature":"19","num_nodes":"17","size_leaf_vector":"1"}},{"base_weights":[-3.7664696E-4,-7.593898E-2,9.9450517E-1,-9.244974E-3,-7.943594E-2,1.2647221E0,-1.9501266E-1,-8.90119E-2,2.1038413E-2,3.2202238E-1,1.4256983E0,-6.757118E-2,5.351737E-2,1.012871E-2,-1.5221626E-2,6.1986595E-2,-5.592498E-2,7.579917E-2,3.5300907E-2],"categories":[],"categories_nodes":[],"categories_segments":[],"categories_sizes":[],"default_left":[0,0,0,0,0,0,0,0,0,0,0,0,0,0,0,0,0,0,0],"id":5,"left_children":[1,3,5,7,-1,9,11,-1,13,15,17,-1,-1,-1,-1,-1,-1,-1,-1],"loss_changes":[3.8756916E1,4.832883E1,1.194426E1,2.4704155E1,0E0,4.0615196E0,1.2572059E1,0E0,2.6837873E1,8.83826E0,5.640259E-1,0E0,0E0,0E0,0E0,0E0,0E0,0E0,0E0],"parents":[2147483647,0,0,1,1,2,2,3,3,5,5,6,6,8,8,9,9,10,10],"right_children":[2,4,6,8,-1,10,12,-1,14,16,18,-1,-1,-1,-1,-1,-1,-1,-1],"split_conditions":[4.46E1,7.3E1,1E0,8E0,-7.943594E-2,1.5E1,1.443E2,-8.90119E-2,2.1E1,1E0,1.16E2,-6.757118E-2,5.351737E-2,1.012871E-2,-1.5221626E-2,6.1986595E-2,-5.592498E-2,7.579917E-2,3.5300907E-2],"split_indices":[2,7,10,14,0,14,3,0,15,0,9,0,0,0,0,0,0,0,0],"split_type":[0,0,0,0,0,0,0,0,0,0,0,0,0,0,0,0,0,0,0],"sum_hessian":[5.1354736E2,4.7815466E2,3.5392685E1,4.5892798E2,1.9226671E1,2.8789494E1,6.6031904E0,6.744073E0,4.521839E2,4.636708E0,2.4152786E1,3.4145882E0,3.1886022E0,2.9052002E2,1.6166386E2,2.91747E0,1.719238E0,2.0477394E1,3.675392E0],"tree_param":{"num_deleted":"0","num_feature":"19","num_nodes":"19","size_leaf_vector":"1"}},{"base_weights":[-4.9046247E-4,-7.2586775E-2,9.614979E-1,-8.986547E-3,-7.693365E-2,2.3951212E-1,1.418855E0,2.4231417E-2,-8.028637E-2,-7.627016E-2,7.15495E-2,7.61668E-2,3.4863975E-2,2.7653293E-3,-8.535578E-2],"categories":[],"categories_nodes":[],"categories_segments":[],"categories_sizes":[],"default_left":[0,0,0,0,0,0,0,0,0,0,0,0,0,0,0],"id":6,"left_children":[1,3,5,7,-1,9,11,13,-1,-1,-1,-1,-1,-1,-1],"loss_changes":[3.5694664E1,4.4628475E1,1.1508625E1,2.4430712E1,0E0,3.3974697E1,5.785942E-1,2.4385147E1,0E0,0E0,0E0,0E0,0E0,0E0,0E0],"parents":[2147483647,0,0,1,1,2,2,3,3,5,5,6,6,7,7],"right_children":[2,4,6,8,-1,10,12,14,-1,-1,-1,-1,-1,-1,-1],"split_conditions":[4.46E1,7.3E1,1E0,1.79E2,-7.693365E-2,7.8E1,5.3E1,4.08E1,-8.028637E-2,-7.627016E-2,7.15495E-2,7.61668E-2,3.4863975E-2,2.7653293E-3,-8.535578E-2],"split_indices":[2,7,13,6,0,7,0,2,0,0,0,0,0,0,0],"split_type":[0,0,0,0,0,0,0,0,0,0,0,0,0,0,0],"sum_hessian":[5.126537E2,4.777716E2,3.4882095E1,4.5887146E2,1.8900154E1,1.4118408E1,2.0763689E1,4.504846E2,8.386879E0,5.5770135E0,8.541394E0,1.7166874E1,3.5968149E0,4.4349258E2,6.9919944E0],"tree_param":{"num_deleted":"0","num_feature":"19","num_nodes":"15","size_leaf_vector":"1"}},{"base_weights":[-7.3071383E-4,-6.957082E-2,9.319593E-1,-8.90385E-3,-7.467957E-2,2.3086396E-1,1.3762906E0,-7.944523E-2,7.3773766E-1,-7.373796E-2,6.9559924E-2,7.3967956E-2,3.367537E-2,-1.231613E-3,-6.352965E-2,-4.446907E-2,7.057681E-2],"categories":[],"categories_nodes":[],"categories_segments":[],"categories_sizes":[],"default_left":[0,0,0,0,0,0,0,0,0,0,0,0,0,0,0,0,0],"id":7,"left_children":[1,3,5,7,-1,9,11,13,15,-1,-1,-1,-1,-1,-1,-1,-1],"loss_changes":[3.297435E1,4.130385E1,1.0678894E1,2.4271713E1,0E0,3.1530437E1,5.5410767E-1,2.7451982E1,4.4869896E1,0E0,0E0,0E0,0E0,0E0,0E0,0E0,0E0],"parents":[2147483647,0,0,1,1,2,2,3,3,5,5,6,6,7,7,8,8],"right_children":[2,4,6,8,-1,10,12,14,16,-1,-1,-1,-1,-1,-1,-1,-1],"split_conditions":[4.46E1,7.3E1,1E0,6.8E1,-7.467957E-2,7.8E1,5.3E1,6.5E1,1.12E2,-7.373796E-2,6.9559924E-2,7.3967956E-2,3.367537E-2,-1.231613E-3,-6.352965E-2,-4.446907E-2,7.057681E-2],"split_indices":[2,7,13,7,0,7,0,7,9,0,0,0,0,0,0,0,0],"split_type":[0,0,0,0,0,0,0,0,0,0,0,0,0,0,0,0,0],"sum_hessian":[5.1155756E2,4.772575E2,3.4300076E1,4.5872104E2,1.8536453E1,1.3895078E1,2.0404997E1,4.1993948E2,3.8781548E1,5.515962E0,8.379115E0,1.6831524E1,3.5734713E0,4.0244107E2,1.7498425E1,1.1263055E1,2.7518492E1],"tree_param":{"num_deleted":"0","num_feature":"19","num_nodes":"17","size_leaf_vector":"1"}},{"base_weights":[-7.032351E-4,-6.641834E-2,9.049632E-1,-8.536551E-3,-7.263873E-2,2.2294345E-1,1.3372437E0,-2.1071956E-1,2.3795307E-1,-7.1430795E-2,6.773612E-2,7.197333E-2,3.253676E-2,-5.575783E-3,-9.1965996E-2,1.8329684E-2,-5.900638E-2],"categories":[],"categories_nodes":[],"categories_segments":[],"categories_sizes":[],"default_left":[0,0,0,0,0,0,0,0,0,0,0,0,0,0,0,0,0],"id":8,"left_children":[1,3,5,7,-1,9,11,13,15,-1,-1,-1,-1,-1,-1,-1,-1],"loss_changes":[3.0499474E1,3.8326977E1,9.922964E0,2.295666E1,0E0,2.931791E1,5.3834915E-1,4.067756E1,3.8302467E1,0E0,0E0,0E0,0E0,0E0,0E0,0E0,0E0],"parents":[2147483647,0,0,1,1,2,2,3,3,5,5,6,6,7,7,8,8],"right_children":[2,4,6,8,-1,10,12,14,16,-1,-1,-1,-1,-1,-1,-1,-1],"split_conditions":[4.46E1,7.3E1,1E0,1E0,-7.263873E-2,7.8E1,5.3E1,1.163E2,3.3E1,-7.1430795E-2,6.773612E-2,7.197333E-2,3.253676E-2,-5.575783E-3,-9.1965996E-2,1.8329684E-2,-5.900638E-2],"split_indices":[2,7,13,10,0,7,0,3,14,0,0,0,0,0,0,0,0],"split_type":[0,0,0,0,0,0,0,0,0,0,0,0,0,0,0,0,0],"sum_hessian":[5.1044876E2,4.7678027E2,3.3668488E1,4.5863782E2,1.8142443E1,1.3649331E1,2.0019157E1,2.5204398E2,2.0659384E2,5.443531E0,8.2058E0,1.6469944E1,3.5492122E0,2.385797E2,1.3464274E1,1.9009128E2,1.6502565E1],"tree_param":{"num_deleted":"0","num_feature":"19","num_nodes":"17","size_leaf_vector":"1"}},{"base_weights":[-8.8310335E-4,-6.648878E-2,8.445769E-1,-9.131219E-2,-1.7421486E-2,-7.277843E-2,1.0543264E0,3.758673E-2,-1.2304376E0,1.2319326E0,-6.2167443E-2,-6.092146E-3,2.670194E-2,6.4897895E-2,-9.0136126E-2,-6.1101254E-2,6.953562E-2],"categories":[],"categories_nodes":[],"categories_segments":[],"categories_sizes":[],"default_left":[0,0,0,0,0,0,0,0,0,0,0,0,0,0,0,0,0],"id":9,"left_children":[1,3,5,-1,7,-1,9,11,13,15,-1,-1,-1,-1,-1,-1,-1],"loss_changes":[2.835553E1,4.093004E1,1.9295025E1,0E0,3.0909006E1,0E0,1.5535473E1,3.5162666E1,3.1416147E1,1.4306705E1,0E0,0E0,0E0,0E0,0E0,0E0,0E0],"parents":[2147483647,0,0,1,1,2,2,4,4,6,6,7,7,8,8,9,9],"right_children":[2,4,6,-1,8,-1,10,12,14,16,-1,-1,-1,-1,-1,-1,-1],"split_conditions":[8.2E0,1.3E1,7.13E1,-9.131219E-2,2.2174487E2,-7.277843E-2,5E0,1.4112352E2,1.6E-1,1.01E2,-6.2167443E-2,-6.092146E-3,2.670194E-2,6.4897895E-2,-9.0136126E-2,-6.1101254E-2,6.953562E-2],"split_indices":[12,15,3,0,18,0,11,18,16,4,0,0,0,0,0,0,0],"split_type":[0,0,0,0,0,0,0,0,0,0,0,0,0,0,0,0,0],"sum_hessian":[5.0920224E2,4.7338968E2,3.581255E1,1.1858973E1,4.6153073E2,2.4964576E0,3.3316093E1,4.42436E2,1.9094706E1,3.1356153E1,1.9599396E0,3.354612E2,1.069748E2,3.2902257E0,1.5804481E1,1.4986113E0,2.9857542E1],"tree_param":{"num_deleted":"0","num_feature":"19","num_nodes":"17","size_leaf_vector":"1"}},{"base_weights":[-1.2720982E-3,-6.3248895E-2,8.71927E-1,-8.331398E-3,-7.056587E-2,2.0817108E-1,1.2934533E0,-1.5077455E-1,3.349408E-1,-6.924534E-2,6.570518E-2,7.017167E-2,2.8888797E-2,2.6367465E-4,-4.429297E-2,-7.7505596E-3,4.8171565E-2],"categories":[],"categories_nodes":[],"categories_segments":[],"categories_sizes":[],"default_left":[0,0,0,0,0,0,0,0,0,0,0,0,0,0,0,0,0],"id":10,"left_children":[1,3,5,7,-1,9,11,13,15,-1,-1,-1,-1,-1,-1,-1,-1],"loss_changes":[2.7644547E1,3.5297806E1,9.202644E0,2.2507965E1,0E0,2.7085728E1,8.037071E-1,3.7317207E1,4.1720505E1,0E0,0E0,0E0,0E0,0E0,0E0,0E0,0E0],"parents":[2147483647,0,0,1,1,2,2,3,3,5,5,6,6,7,7,8,8],"right_children":[2,4,6,8,-1,10,12,14,16,-1,-1,-1,-1,-1,-1,-1,-1],"split_conditions":[4.46E1,7.3E1,1E0,5.8E1,-7.056587E-2,7.8E1,1.14E2,3.12E1,1.26E2,-6.924534E-2,6.570518E-2,7.017167E-2,2.8888797E-2,2.6367465E-4,-4.429297E-2,-7.7505596E-3,4.8171565E-2],"split_indices":[2,7,13,0,0,7,9,2,4,0,0,0,0,0,0,0,0],"split_type":[0,0,0,0,0,0,0,0,0,0,0,0,0,0,0,0,0],"sum_hessian":[5.0880002E2,4.7594647E2,3.2853546E1,4.5828317E2,1.7663317E1,1.3340613E1,1.9512932E1,3.2428122E2,1.3400194E2,5.363019E0,7.9775944E0,1.608077E1,3.4321606E0,2.6831467E2,5.5966553E1,7.572354E1,5.8278404E1],"tree_param":{"num_deleted":"0","num_feature":"19","num_nodes":"17","size_leaf_vector":"1"}},{"base_weights":[-1.1573323E-3,3.3226978E-2,-7.748036E-2,-2.6984679E-2,8.928429E-1,2.3562523E-2,-6.856801E-2,2.3925483E-1,6.514215E-2,-8.303734E-2,2.6389195E-3,-6.619804E-2,6.4179614E-2],"categories":[],"categories_nodes":[],"categories_segments":[],"categories_sizes":[],"default_left":[0,0,0,0,0,0,0,0,0,0,0,0,0],"id":11,"left_children":[1,3,-1,5,7,9,-1,11,-1,-1,-1,-1,-1],"loss_changes":[2.7119799E1,2.5817247E1,0E0,3.1745466E1,8.437561E0,2.2268646E1,0E0,2.4246458E1,0E0,0E0,0E0,0E0,0E0],"parents":[2147483647,0,0,1,1,3,3,4,4,5,5,7,7],"right_children":[2,4,-1,6,8,10,-1,12,-1,-1,-1,-1,-1],"split_conditions":[1.79E2,4.46E1,-7.748036E-2,7.3E1,1E0,8E0,-6.856801E-2,7.8E1,6.514215E-2,-8.303734E-2,2.6389195E-3,-6.619804E-2,6.4179614E-2],"split_indices":[6,2,0,7,13,14,0,7,0,0,0,0,0],"split_type":[0,0,0,0,0,0,0,0,0,0,0,0,0],"sum_hessian":[5.073978E2,4.9733276E2,1.0065046E1,4.656827E2,3.1650059E1,4.4975482E2,1.5927866E1,1.2811144E1,1.8838915E1,6.7162404E0,4.430386E2,5.023688E0,7.787456E0],"tree_param":{"num_deleted":"0","num_feature":"19","num_nodes":"13","size_leaf_vector":"1"}},{"base_weights":[-1.4318301E-3,3.1475272E-2,-7.5022794E-2,-2.6015405E-2,8.704184E-1,2.2206394E-2,-6.703592E-2,2.3223016E-1,6.353243E-2,-3.157679E-2,4.7534476E-3,-6.446896E-2,6.276286E-2],"categories":[],"categories_nodes":[],"categories_segments":[],"categories_sizes":[],"default_left":[0,0,0,0,0,0,0,0,0,0,0,0,0],"id":12,"left_children":[1,3,-1,5,7,9,-1,11,-1,-1,-1,-1,-1],"loss_changes":[2.5057512E1,2.3998621E1,0E0,2.9585196E1,7.855322E0,2.1527554E1,0E0,2.2667963E1,0E0,0E0,0E0,0E0,0E0],"parents":[2147483647,0,0,1,1,3,3,4,4,5,5,7,7],"right_children":[2,4,-1,6,8,10,-1,12,-1,-1,-1,-1,-1],"split_conditions":[1.79E2,4.46E1,-7.5022794E-2,7.3E1,1E0,4.5E1,-6.703592E-2,7.8E1,6.353243E-2,-3.157679E-2,4.7534476E-3,-6.446896E-2,6.276286E-2],"split_indices":[6,2,0,7,13,9,0,7,0,0,0,0,0],"split_type":[0,0,0,0,0,0,0,0,0,0,0,0,0],"sum_hessian":[5.0601456E2,4.9610294E2,9.911624E0,4.651934E2,3.090955E1,4.4968265E2,1.55107355E1,1.25223055E1,1.8387245E1,4.4324455E1,4.0535822E2,4.929704E0,7.5926013E0],"tree_param":{"num_deleted":"0","num_feature":"19","num_nodes":"13","size_leaf_vector":"1"}},{"base_weights":[-1.5812989E-3,-6.249609E-2,7.911876E-1,-8.638897E-2,-1.6255286E-2,-7.04503E-2,9.962196E-1,3.5253286E-2,-1.1565166E0,1.1661341E0,-5.9331458E-2,-5.958009E-3,2.5797576E-2,6.352859E-2,-8.575057E-2,-5.886358E-2,6.6063784E-2],"categories":[],"categories_nodes":[],"categories_segments":[],"categories_sizes":[],"default_left":[0,0,0,0,0,0,0,0,0,0,0,0,0,0,0,0,0],"id":13,"left_children":[1,3,5,-1,7,-1,9,11,13,15,-1,-1,-1,-1,-1,-1,-1],"loss_changes":[2.4465448E1,3.6198277E1,1.7711426E1,0E0,2.6984459E1,0E0,1.3866127E1,3.271289E1,2.9095156E1,1.3090633E1,0E0,0E0,0E0,0E0,0E0,0E0,0E0],"parents":[2147483647,0,0,1,1,2,2,4,4,6,6,7,7,8,8,9,9],"right_children":[2,4,6,-1,8,-1,10,12,14,16,-1,-1,-1,-1,-1,-1,-1],"split_conditions":[8.2E0,1.3E1,7.13E1,-8.638897E-2,2.2174487E2,-7.04503E-2,5E0,1.4112352E2,1.6E-1,1.01E2,-5.9331458E-2,-5.958009E-3,2.5797576E-2,6.352859E-2,-8.575057E-2,-5.886358E-2,6.6063784E-2],"split_indices":[12,15,3,0,18,0,11,18,16,4,0,0,0,0,0,0,0],"split_type":[0,0,0,0,0,0,0,0,0,0,0,0,0,0,0,0,0],"sum_hessian":[5.0459787E2,4.694476E2,3.5150257E1,1.1700739E1,4.5774686E2,2.4957967E0,3.265446E1,4.3889014E2,1.8856726E1,3.0728321E1,1.9261402E0,3.327529E2,1.0613725E2,3.2889073E0,1.556782E1,1.4989142E0,2.9229406E1],"tree_param":{"num_deleted":"0","num_feature":"19","num_nodes":"17","size_leaf_vector":"1"}},{"base_weights":[-1.9248286E-3,2.9559935E-2,-7.273256E-2,-1.7549254E-2,9.8053414E-1,-1.009032E0,4.5508534E-2,-6.543086E-2,1.279186E0,-8.600404E-2,3.8172335E-3,4.094332E-3,-8.768689E-2,-5.7958353E-2,7.448664E-2],"categories":[],"categories_nodes":[],"categories_segments":[],"categories_sizes":[],"default_left":[0,0,0,0,0,0,0,0,0,0,0,0,0,0,0],"id":14,"left_children":[1,3,-1,5,7,9,11,-1,13,-1,-1,-1,-1,-1,-1],"loss_changes":[2.3139498E1,2.2203499E1,0E0,2.9608303E1,1.7666435E1,2.1985434E1,2.9304571E1,0E0,1.2609879E1,0E0,0E0,0E0,0E0,0E0,0E0],"parents":[2147483647,0,0,1,1,3,3,4,4,5,5,6,6,8,8],"right_children":[2,4,-1,6,8,10,12,-1,14,-1,-1,-1,-1,-1,-1],"split_conditions":[1.79E2,1.61E2,-7.273256E-2,1.4E1,2E0,4.7E1,2.42E2,-6.543086E-2,4.5E1,-8.600404E-2,3.8172335E-3,4.094332E-3,-8.768689E-2,-5.7958353E-2,7.448664E-2],"split_indices":[6,6,0,15,11,0,9,0,7,0,0,0,0,0,0],"split_type":[0,0,0,0,0,0,0,0,0,0,0,0,0,0,0],"sum_hessian":[5.0396573E2,4.9423392E2,9.731819E0,4.7184146E2,2.239245E1,2.7317398E1,4.4452405E2,2.1939776E0,2.0198473E1,1.6151499E1,1.1165901E1,4.3665012E2,7.8739333E0,1.24735E0,1.8951124E1],"tree_param":{"num_deleted":"0","num_feature":"19","num_nodes":"15","size_leaf_vector":"1"}},{"base_weights":[-2.4192717E-3,-6.0276296E-2,7.562555E-1,-8.0922626E-2,-1.7681526E-2,-6.761392E-2,9.5420945E-1,-1.0944766E-1,6.053884E-1,1.1161776E0,-5.6712385E-2,-1.5640969E-3,-5.4872107E-2,4.307181E-2,-8.4765315E-2,-5.697533E-2,6.3343845E-2],"categories":[],"categories_nodes":[],"categories_segments":[],"categories_sizes":[],"default_left":[0,0,0,0,0,0,0,0,0,0,0,0,0,0,0,0,0],"id":15,"left_children":[1,3,5,-1,7,-1,9,11,13,15,-1,-1,-1,-1,-1,-1,-1],"loss_changes":[2.2182865E1,3.1133394E1,1.623675E1,0E0,2.6255259E1,0E0,1.2537622E1,3.0863016E1,3.618882E1,1.2126854E1,0E0,0E0,0E0,0E0,0E0,0E0,0E0],"parents":[2147483647,0,0,1,1,2,2,4,4,6,6,7,7,8,8,9,9],"right_children":[2,4,6,-1,8,-1,10,12,14,16,-1,-1,-1,-1,-1,-1,-1],"split_conditions":[8.2E0,1.3E1,7.13E1,-8.0922626E-2,1.5E2,-6.761392E-2,5E0,1.37E2,1E0,1.01E2,-5.6712385E-2,-1.5640969E-3,-5.4872107E-2,4.307181E-2,-8.4765315E-2,-5.697533E-2,6.3343845E-2],"split_indices":[12,15,3,0,4,0,11,4,13,4,0,0,0,0,0,0,0],"split_type":[0,0,0,0,0,0,0,0,0,0,0,0,0,0,0,0,0],"sum_hessian":[5.033274E2,4.685184E2,3.4808964E1,1.1482328E1,4.5703607E2,2.4870045E0,3.232196E1,3.990832E2,5.795289E1,3.042772E1,1.8942409E0,3.7078036E2,2.8302828E1,5.271206E1,5.240829E0,1.4946215E0,2.8933096E1],"tree_param":{"num_deleted":"0","num_feature":"19","num_nodes":"17","size_leaf_vector":"1"}},{"base_weights":[-2.882549E-3,2.7174156E-2,-7.060031E-2,-2.6227323E-2,8.332748E-1,1.9038532E-2,-6.521749E-2,2.1972342E-1,1.2227123E0,-2.36102E-3,3.5879247E-2,-6.275561E-2,6.1110098E-2,6.51263E-2,2.9300837E-2],"categories":[],"categories_nodes":[],"categories_segments":[],"categories_sizes":[],"default_left":[0,0,0,0,0,0,0,0,0,0,0,0,0,0,0],"id":16,"left_children":[1,3,-1,5,7,9,-1,11,13,-1,-1,-1,-1,-1,-1],"loss_changes":[2.136953E1,2.1291668E1,0E0,2.689153E1,7.0739E0,2.0838003E1,0E0,2.0977222E1,1.8083382E-1,0E0,0E0,0E0,0E0,0E0,0E0],"parents":[2147483647,0,0,1,1,3,3,4,4,5,5,7,7,8,8],"right_children":[2,4,-1,6,8,10,-1,12,14,-1,-1,-1,-1,-1,-1],"split_conditions":[1.79E2,4.46E1,-7.060031E-2,7.3E1,1E0,6.8E1,-6.521749E-2,7.8E1,1.14E2,-2.36102E-3,3.5879247E-2,-6.275561E-2,6.1110098E-2,6.51263E-2,2.9300837E-2],"split_indices":[6,2,0,7,13,7,0,7,9,0,0,0,0,0,0],"split_type":[0,0,0,0,0,0,0,0,0,0,0,0,0,0,0],"sum_hessian":[5.0264444E2,4.9310712E2,9.537294E0,4.6337738E2,2.9729744E1,4.484792E2,1.489819E1,1.2150721E1,1.7579023E1,4.104768E2,3.8002388E1,4.814974E0,7.335747E0,1.4691582E1,2.8874404E0],"tree_param":{"num_deleted":"0","num_feature":"19","num_nodes":"15","size_leaf_vector":"1"}},{"base_weights":[-2.7696984E-3,2.2094889E-2,-8.0227435E-2,-7.604044E-2,4.7161765E-2,7.507469E-2,-6.842552E-2,-3.3712108E-4,3.140563E-2],"categories":[],"categories_nodes":[],"categories_segments":[],"categories_sizes":[],"default_left":[0,0,0,0,0,0,0,0,0],"id":17,"left_children":[1,3,-1,-1,5,7,-1,-1,-1],"loss_changes":[2.0036003E1,1.9235134E1,0E0,0E0,1.940756E1,2.1725025E1,0E0,0E0,0E0],"parents":[2147483647,0,0,1,1,4,4,5,5],"right_children":[2,4,-1,-1,6,8,-1,-1,-1],"split_conditions":[2.75E2,8E0,-8.0227435E-2,-7.604044E-2,1.79E2,1.64E2,-6.842552E-2,-3.3712108E-4,3.140563E-2],"split_indices":[9,14,0,0,6,9,0,0,0],"split_type":[0,0,0,0,0,0,0,0,0],"sum_hessian":[5.011785E2,4.944887E2,6.6897955E0,6.9513717E0,4.8753735E2,4.7903906E2,8.498284E0,4.1816327E2,6.0875782E1],"tree_param":{"num_deleted":"0","num_feature":"19","num_nodes":"9","size_leaf_vector":"1"}},{"base_weights":[-3.040564E-3,-5.307929E-2,7.741396E-1,-8.414373E-3,-6.4075574E-2,1.0037334E0,-2.714344E-1,-1.4321502E-1,3.1653047E-1,-3.874522E-2,1.1145728E0,-6.1131306E-2,4.699863E-2,4.593878E-3,-3.0410921E-2,-8.989018E-2,2.255869E-2,6.0551565E-2,2.0950245E-2],"categories":[],"categories_nodes":[],"categories_segments":[],"categories_sizes":[],"default_left":[0,0,0,0,0,0,0,0,0,0,0,0,0,0,0,0,0,0,0],"id":18,"left_children":[1,3,5,7,-1,9,11,13,15,-1,17,-1,-1,-1,-1,-1,-1,-1,-1],"loss_changes":[1.9552593E1,2.5903734E1,7.5734215E0,2.0052004E1,0E0,5.821907E0,8.3660555E0,3.5421864E1,3.9024487E1,0E0,1.10853E0,0E0,0E0,0E0,0E0,0E0,0E0,0E0,0E0],"parents":[2147483647,0,0,1,1,2,2,3,3,5,5,6,6,7,7,8,8,10,10],"right_children":[2,4,6,8,-1,10,12,14,16,-1,18,-1,-1,-1,-1,-1,-1,-1,-1],"split_conditions":[4.46E1,7.3E1,1.16E2,5.8E1,-6.4075574E-2,2E0,6.66E0,2.1E1,5.9E1,-3.874522E-2,1E0,-6.1131306E-2,4.699863E-2,4.593878E-3,-3.0410921E-2,-8.989018E-2,2.255869E-2,6.0551565E-2,2.0950245E-2],"split_indices":[2,7,9,0,0,17,16,15,5,0,10,0,0,0,0,0,0,0,0],"split_type":[0,0,0,0,0,0,0,0,0,0,0,0,0,0,0,0,0,0,0],"sum_hessian":[5.0072156E2,4.713081E2,2.9413458E1,4.5574442E2,1.5563693E1,2.415038E1,5.263078E0,3.225122E2,1.3323222E2,1.0652398E0,2.308514E1,2.942992E0,2.320086E0,2.147454E2,1.07766785E2,7.23692E0,1.259953E2,1.9622852E1,3.4622874E0],"tree_param":{"num_deleted":"0","num_feature":"19","num_nodes":"19","size_leaf_vector":"1"}},{"base_weights":[-3.1504969E-3,-5.681596E-2,7.094229E-1,-7.812171E-2,-1.6182305E-2,-6.754135E-1,1.020308E0,3.1733103E-2,-1.0857359E0,-7.6835774E-2,4.414411E-2,1.3678629E0,-1.3847643E-1,-5.789257E-3,2.4553342E-2,6.2310368E-2,-8.169936E-2,2.1452835E-2,7.446257E-2,6.7829974E-2,-7.0394956E-2],"categories":[],"categories_nodes":[],"categories_segments":[],"categories_sizes":[],"default_left":[0,0,0,0,0,0,0,0,0,0,0,0,0,0,0,0,0,0,0,0,0],"id":19,"left_children":[1,3,5,-1,7,9,11,13,15,-1,-1,17,19,-1,-1,-1,-1,-1,-1,-1,-1],"loss_changes":[1.917124E1,2.8494167E1,1.5805895E1,0E0,2.334855E1,1.080426E1,1.189846E1,2.9626768E1,2.7011534E1,0E0,0E0,1.9202614E0,1.6364454E1,0E0,0E0,0E0,0E0,0E0,0E0,0E0,0E0],"parents":[2147483647,0,0,1,1,2,2,4,4,5,5,6,6,7,7,8,8,11,11,12,12],"right_children":[2,4,6,-1,8,10,12,14,16,-1,-1,18,20,-1,-1,-1,-1,-1,-1,-1,-1],"split_conditions":[8.2E0,1.3E1,1.15E0,-7.812171E-2,2.2174487E2,4.18E1,1.04067604E2,1.4112352E2,1.6E-1,-7.6835774E-2,4.414411E-2,1.6E1,1.32E0,-5.789257E-3,2.4553342E-2,6.2310368E-2,-8.169936E-2,2.1452835E-2,7.446257E-2,6.7829974E-2,-7.0394956E-2],"split_indices":[12,15,16,0,18,2,18,18,16,0,0,0,16,0,0,0,0,0,0,0,0],"split_type":[0,0,0,0,0,0,0,0,0,0,0,0,0,0,0,0,0,0,0,0,0],"sum_hessian":[4.992783E2,4.651659E2,3.4112396E1,1.1239819E1,4.539261E2,6.039027E0,2.8073368E1,4.353911E2,1.8534948E1,3.8982391E0,2.1407878E0,2.1457253E1,6.6161156E0,3.3011902E2,1.052721E2,3.2858377E0,1.5249111E1,2.9759707E0,1.8481281E1,3.006502E0,3.6096137E0],"tree_param":{"num_deleted":"0","num_feature":"19","num_nodes":"21","size_leaf_vector":"1"}},{"base_weights":[-3.0438548E-3,2.4299681E-2,-6.676394E-2,-1.9890456E-2,9.219628E-1,-9.274873E-1,3.665679E-2,-6.1143436E-2,1.2020067E0,-7.960563E-2,3.1689336E-3,3.5114363E-3,-8.153006E-2,-5.536213E-2,7.0257045E-2],"categories":[],"categories_nodes":[],"categories_segments":[],"categories_sizes":[],"default_left":[0,0,0,0,0,0,0,0,0,0,0,0,0,0,0],"id":20,"left_children":[1,3,-1,5,7,9,11,-1,13,-1,-1,-1,-1,-1,-1],"loss_changes":[1.822372E1,1.9468073E1,0E0,2.4067572E1,1.5300301E1,1.82133E1,2.4842617E1,0E0,1.134613E1,0E0,0E0,0E0,0E0,0E0,0E0],"parents":[2147483647,0,0,1,1,3,3,4,4,5,5,6,6,8,8],"right_children":[2,4,-1,6,8,10,12,-1,14,-1,-1,-1,-1,-1,-1],"split_conditions":[1.79E2,1.61E2,-6.676394E-2,1.4E1,2E0,4.7E1,2.42E2,-6.1143436E-2,4.5E1,-7.960563E-2,3.1689336E-3,3.5114363E-3,-8.153006E-2,-5.536213E-2,7.0257045E-2],"split_indices":[6,6,0,15,11,0,9,0,7,0,0,0,0,0,0],"split_type":[0,0,0,0,0,0,0,0,0,0,0,0,0,0,0],"sum_hessian":[4.9837598E2,4.8931476E2,9.061211E0,4.672889E2,2.2025845E1,2.6503258E1,4.4078564E2,2.1549065E0,1.987094E1,1.5499889E1,1.1003369E1,4.3302414E2,7.761504E0,1.2467678E0,1.862417E1],"tree_param":{"num_deleted":"0","num_feature":"19","num_nodes":"15","size_leaf_vector":"1"}},{"base_weights":[-3.4597917E-3,-5.0759345E-2,7.5031316E-1,-8.509152E-3,-6.270649E-2,9.7375345E-1,-2.6483682E-1,1.9024527E-2,-7.7109285E-2,-3.7702035E-2,1.0830405E0,-5.9105475E-2,4.5657102E-2,-8.2650045E-3,1.21127665E-2,5.920297E-2,1.8739365E-2],"categories":[],"categories_nodes":[],"categories_segments":[],"categories_sizes":[],"default_left":[0,0,0,0,0,0,0,0,0,0,0,0,0,0,0,0,0],"id":21,"left_children":[1,3,5,7,-1,9,11,13,-1,-1,15,-1,-1,-1,-1,-1,-1],"loss_changes":[1.7811655E1,2.3886152E1,6.9488373E0,1.924634E1,0E0,5.42223E0,7.678897E0,1.847559E1,0E0,0E0,1.2268581E0,0E0,0E0,0E0,0E0,0E0,0E0],"parents":[2147483647,0,0,1,1,2,2,3,3,5,5,6,6,7,7,10,10],"right_children":[2,4,6,8,-1,10,12,14,-1,-1,16,-1,-1,-1,-1,-1,-1],"split_conditions":[4.46E1,7.3E1,1.16E2,4.08E1,-6.270649E-2,2E0,6.66E0,1E0,-7.7109285E-2,-3.7702035E-2,1E0,-5.9105475E-2,4.5657102E-2,-8.2650045E-3,1.21127665E-2,5.920297E-2,1.8739365E-2],"split_indices":[2,7,9,2,0,17,16,10,0,0,10,0,0,0,0,0,0],"split_type":[0,0,0,0,0,0,0,0,0,0,0,0,0,0,0,0,0],"sum_hessian":[4.9751367E2,4.690154E2,2.8498247E1,4.540798E2,1.4935617E1,2.3390617E1,5.10763E0,4.4704178E2,7.0380244E0,1.0405297E0,2.2350088E1,2.8696074E0,2.2380223E0,2.4500085E2,2.0204092E2,1.8972254E1,3.3778343E0],"tree_param":{"num_deleted":"0","num_feature":"19","num_nodes":"17","size_leaf_vector":"1"}},{"base_weights":[-3.5189108E-3,-5.458203E-2,6.829657E-1,-7.409378E-2,-1.7106645E-2,-6.720209E-1,9.845104E-1,-1.02846265E-1,5.6271744E-1,-7.37953E-2,4.229004E-2,1.3155524E0,-1.21902846E-1,-1.4299173E-3,-5.203864E-2,4.035386E-2,-8.087357E-2,1.9893989E-2,7.1643256E-2,6.5229885E-2,-6.7299575E-2],"categories":[],"categories_nodes":[],"categories_segments":[],"categories_sizes":[],"default_left":[0,0,0,0,0,0,0,0,0,0,0,0,0,0,0,0,0,0,0,0,0],"id":22,"left_children":[1,3,5,-1,7,9,11,13,15,-1,-1,17,19,-1,-1,-1,-1,-1,-1,-1,-1],"loss_changes":[1.7467113E1,2.477874E1,1.4757475E1,0E0,2.2572105E1,9.636007E0,1.0644674E1,2.7504198E1,3.2468758E1,0E0,0E0,1.8109207E0,1.486505E1,0E0,0E0,0E0,0E0,0E0,0E0,0E0,0E0],"parents":[2147483647,0,0,1,1,2,2,4,4,5,5,6,6,7,7,8,8,11,11,12,12],"right_children":[2,4,6,-1,8,10,12,14,16,-1,-1,18,20,-1,-1,-1,-1,-1,-1,-1,-1],"split_conditions":[8.2E0,1.3E1,1.15E0,-7.409378E-2,1.5E2,4.18E1,1.04067604E2,1.37E2,1E0,-7.37953E-2,4.229004E-2,1.6E1,1.32E0,-1.4299173E-3,-5.203864E-2,4.035386E-2,-8.087357E-2,1.9893989E-2,7.1643256E-2,6.5229885E-2,-6.7299575E-2],"split_indices":[12,15,16,0,4,2,18,4,13,0,0,0,16,0,0,0,0,0,0,0,0],"split_type":[0,0,0,0,0,0,0,0,0,0,0,0,0,0,0,0,0,0,0,0,0],"sum_hessian":[4.962275E2,4.627286E2,3.3498875E1,1.0852587E1,4.5187604E2,5.8742824E0,2.7624594E1,3.9438086E2,5.7495174E1,3.8583808E0,2.0159016E0,2.1117235E1,6.5073595E0,3.66406E2,2.7974855E1,5.226682E1,5.228354E0,2.8913598E0,1.8225874E1,2.974839E0,3.5325203E0],"tree_param":{"num_deleted":"0","num_feature":"19","num_nodes":"21","size_leaf_vector":"1"}},{"base_weights":[-3.5663003E-3,-3.300907E-2,1.1576414E0,-8.6904876E-2,6.945207E-1,8.603778E-2,-6.0844988E-2,-1.7483033E-1,4.9845228E-1,-6.2662765E-2,8.866563E-1,-5.215358E-3,-5.095891E-2,-8.019595E-2,3.6355022E-2,5.1717848E-2,-5.02777E-2],"categories":[],"categories_nodes":[],"categories_segments":[],"categories_sizes":[],"default_left":[0,0,0,0,0,0,0,0,0,0,0,0,0,0,0,0,0],"id":23,"left_children":[1,3,5,7,9,-1,-1,11,13,-1,15,-1,-1,-1,-1,-1,-1],"loss_changes":[1.7005241E1,1.90764E1,1.8540268E1,2.3371656E1,1.3670647E1,0E0,0E0,2.3358936E1,2.9691532E1,0E0,9.741037E0,0E0,0E0,0E0,0E0,0E0,0E0],"parents":[2147483647,0,0,1,1,2,2,3,3,4,4,7,7,8,8,10,10],"right_children":[2,4,6,8,10,-1,-1,12,14,-1,16,-1,-1,-1,-1,-1,-1],"split_conditions":[6.2E1,8.2E0,1.06E2,1.5E2,7.13E1,8.603778E-2,-6.0844988E-2,1.37E2,1.6E1,-6.2662765E-2,5E0,-5.215358E-3,-5.095891E-2,-8.019595E-2,3.6355022E-2,5.1717848E-2,-5.02777E-2],"split_indices":[15,12,4,4,3,0,0,4,15,0,11,0,0,0,0,0,0],"split_type":[0,0,0,0,0,0,0,0,0,0,0,0,0,0,0,0,0],"sum_hessian":[4.952691E2,4.8396948E2,1.1299618E1,4.5140936E2,3.256011E1,9.356167E0,1.9434509E0,3.9306857E2,5.8340805E1,2.4275942E0,3.0132513E1,3.6380566E2,2.926291E1,5.1326246E0,5.320818E1,2.837129E1,1.7612227E0],"tree_param":{"num_deleted":"0","num_feature":"19","num_nodes":"17","size_leaf_vector":"1"}},{"base_weights":[-3.654768E-3,-7.896381E-2,1.7989345E-2,3.9085397E-1,-7.789847E-2,-2.0852527E-1,9.211911E-1,5.977438E-1,-1.7312196E-1,9.971532E-3,-8.4898464E-2,-7.312059E-2,5.620728E-2,-3.8274176E-2,5.104663E-2,8.67583E-3,-2.5222344E-2],"categories":[],"categories_nodes":[],"categories_segments":[],"categories_sizes":[],"default_left":[0,0,0,0,0,0,0,0,0,0,0,0,0,0,0,0,0],"id":24,"left_children":[1,-1,3,5,7,9,11,13,15,-1,-1,-1,-1,-1,-1,-1,-1],"loss_changes":[1.6926044E1,0E0,1.754106E1,3.2091316E1,2.5221409E1,2.9459158E1,2.7490017E1,2.8733217E1,3.947653E1,0E0,0E0,0E0,0E0,0E0,0E0,0E0,0E0],"parents":[2147483647,0,0,2,2,3,3,4,4,5,5,6,6,7,7,8,8],"right_children":[2,-1,4,6,8,10,12,14,16,-1,-1,-1,-1,-1,-1,-1,-1],"split_conditions":[5.1E1,-7.896381E-2,6.2E1,5.9E1,5.9483025E1,4.8E1,1.1E1,5.6E1,7.7E-1,9.971532E-3,-8.4898464E-2,-7.312059E-2,5.620728E-2,-3.8274176E-2,5.104663E-2,8.67583E-3,-2.5222344E-2],"split_indices":[5,0,5,5,18,0,0,0,13,0,0,0,0,0,0,0,0],"split_type":[0,0,0,0,0,0,0,0,0,0,0,0,0,0,0,0,0],"sum_hessian":[4.9448935E2,5.7255054E0,4.8876385E2,9.935208E1,3.8941177E2,4.6924973E1,5.242711E1,4.7451355E1,3.4196042E2,3.7515617E1,9.409353E0,3.6267743E0,4.8800335E1,1.1049266E1,3.640209E1,1.6735092E2,1.746095E2],"tree_param":{"num_deleted":"0","num_feature":"19","num_nodes":"17","size_leaf_vector":"1"}},{"base_weights":[-3.82135E-3,2.2019079E-2,-6.470131E-2,-1.9545838E-2,8.732734E-1,-5.16925E-1,7.217863E-2,-5.8577675E-2,1.1411908E0,4.278899E-2,-4.6856955E-2,3.7138596E-2,-5.0480216E-4,-5.2945938E-2,6.686863E-2],"categories":[],"categories_nodes":[],"categories_segments":[],"categories_sizes":[],"default_left":[0,0,0,0,0,0,0,0,0,0,0,0,0,0,0],"id":25,"left_children":[1,3,-1,5,7,9,11,-1,13,-1,-1,-1,-1,-1,-1],"loss_changes":[1.6531889E1,1.7222599E1,0E0,2.1233883E1,1.3751272E1,4.260128E1,2.1698744E1,0E0,1.0282442E1,0E0,0E0,0E0,0E0,0E0,0E0],"parents":[2147483647,0,0,1,1,3,3,4,4,5,5,6,6,8,8],"right_children":[2,4,-1,6,8,10,12,-1,14,-1,-1,-1,-1,-1,-1],"split_conditions":[1.79E2,1.61E2,-6.470131E-2,1.2E1,2E0,1.63E1,8.9E1,-5.8577675E-2,4.5E1,4.278899E-2,-4.6856955E-2,3.7138596E-2,-5.0480216E-4,-5.2945938E-2,6.686863E-2],"split_indices":[6,6,0,14,11,2,6,0,7,0,0,0,0,0,0],"split_type":[0,0,0,0,0,0,0,0,0,0,0,0,0,0,0],"sum_hessian":[4.9401105E2,4.8527484E2,8.736227E0,4.6361456E2,2.1660263E1,7.146383E1,3.9215073E2,2.1184902E0,1.9541773E1,1.6506348E1,5.495748E1,4.197758E1,3.5017316E2,1.2398338E0,1.8301939E1],"tree_param":{"num_deleted":"0","num_feature":"19","num_nodes":"15","size_leaf_vector":"1"}},{"base_weights":[-3.7906305E-3,-4.91728E-2,7.3347765E-1,-9.738647E-3,-6.110927E-2,9.6318054E-1,-2.2698297E-1,-7.0143305E-2,6.34982E-1,6.828924E-2,1.1149179E0,-5.4107692E-2,4.051822E-2,-1.0680261E-3,-5.6863964E-2,-4.1422874E-2,6.2597044E-2,4.191847E-2,-4.4712048E-2,6.0403746E-2,2.0497328E-2],"categories":[],"categories_nodes":[],"categories_segments":[],"categories_sizes":[],"default_left":[0,0,0,0,0,0,0,0,0,0,0,0,0,0,0,0,0,0,0,0,0],"id":26,"left_children":[1,3,5,7,-1,9,11,13,15,17,19,-1,-1,-1,-1,-1,-1,-1,-1,-1,-1],"loss_changes":[1.6574497E1,2.1569992E1,6.555831E0,1.7662888E1,0E0,3.0974197E0,6.5128646E0,2.1556095E1,3.611815E1,4.0507936E0,8.128147E-1,0E0,0E0,0E0,0E0,0E0,0E0,0E0,0E0,0E0,0E0],"parents":[2147483647,0,0,1,1,2,2,3,3,5,5,6,6,7,7,8,8,9,9,10,10],"right_children":[2,4,6,8,-1,10,12,14,16,18,20,-1,-1,-1,-1,-1,-1,-1,-1,-1,-1],"split_conditions":[4.46E1,7.3E1,1E0,6.8E1,-6.110927E-2,1.5E1,1.443E2,6.5E1,1.12E2,1E0,1.16E2,-5.4107692E-2,4.051822E-2,-1.0680261E-3,-5.6863964E-2,-4.1422874E-2,6.2597044E-2,4.191847E-2,-4.4712048E-2,6.0403746E-2,2.0497328E-2],"split_indices":[2,7,10,7,0,14,3,7,9,0,9,0,0,0,0,0,0,0,0,0,0],"split_type":[0,0,0,0,0,0,0,0,0,0,0,0,0,0,0,0,0,0,0,0,0],"sum_hessian":[4.9329184E2,4.6556738E2,2.7724457E1,4.5140057E2,1.4166812E1,2.237132E1,5.3531365E0,4.1354614E2,3.7854435E1,3.4535565E0,1.8917765E1,2.910543E0,2.4425938E0,3.9644324E2,1.710289E1,1.1124374E1,2.673006E1,1.9902415E0,1.463315E0,1.607934E1,2.8384228E0],"tree_param":{"num_deleted":"0","num_feature":"19","num_nodes":"21","size_leaf_vector":"1"}},{"base_weights":[-3.6676973E-3,1.6263045E-1,-1.9651787E-1,3.726397E-1,-5.0791556E-1,-1.1563001E0,5.8013458E-2,-7.810694E-2,4.4033664E-1,-1.0262672E0,1.4050977E-1,-9.273387E-2,1.350097E-1,1.600276E-1,-7.674332E-2,1.6314402E-2,6.9315836E-2,6.566619E-2,-6.405484E-2,3.1026075E-2,-7.90602E-2,-7.464277E-2,4.837362E-2,-7.354917E-2,1.1937239E-2],"categories":[],"categories_nodes":[],"categories_segments":[],"categories_sizes":[],"default_left":[0,0,0,0,0,0,0,0,0,0,0,0,0,0,0,0,0,0,0,0,0,0,0,0,0],"id":27,"left_children":[1,3,5,7,9,11,13,-1,15,17,19,-1,21,23,-1,-1,-1,-1,-1,-1,-1,-1,-1,-1,-1],"loss_changes":[1.5837372E1,3.753222E1,5.592527E1,2.7212704E1,2.1543728E1,4.3515373E1,2.9767256E1,0E0,2.0741825E1,2.28494E1,2.5084032E1,0E0,2.5526897E1,2.2388638E1,0E0,0E0,0E0,0E0,0E0,0E0,0E0,0E0,0E0,0E0,0E0],"parents":[2147483647,0,0,1,1,2,2,3,3,4,4,5,5,6,6,8,8,9,9,10,10,12,12,13,13],"right_children":[2,4,6,8,10,12,14,-1,16,18,20,-1,22,24,-1,-1,-1,-1,-1,-1,-1,-1,-1,-1,-1],"split_conditions":[1.4E0,3E0,2.54E0,5.5E1,5E0,1.045E2,1.956453E2,-7.810694E-2,1.29E0,4E-1,1.08E2,-9.273387E-2,1.2433002E2,1E1,-7.674332E-2,1.6314402E-2,6.9315836E-2,6.566619E-2,-6.405484E-2,3.1026075E-2,-7.90602E-2,-7.464277E-2,4.837362E-2,-7.354917E-2,1.1937239E-2],"split_indices":[16,11,16,5,11,3,18,0,16,13,6,0,18,14,0,0,0,0,0,0,0,0,0,0,0],"split_type":[0,0,0,0,0,0,0,0,0,0,0,0,0,0,0,0,0,0,0,0,0,0,0,0,0],"sum_hessian":[4.9183145E2,2.6418054E2,2.2765091E2,2.0151274E2,6.2667786E1,4.6975117E1,1.8067578E2,6.0661693E0,1.9544658E2,3.45032E1,2.8164587E1,3.0203775E1,1.6771341E1,1.7064647E2,1.002932E1,1.7561868E2,1.9827898E1,2.9809897E0,3.1522211E1,2.2524403E1,5.6401854E0,5.4062405E0,1.1365102E1,7.0423737E0,1.636041E2],"tree_param":{"num_deleted":"0","num_feature":"19","num_nodes":"25","size_leaf_vector":"1"}},{"base_weights":[-4.138464E-3,-7.609769E-2,1.6754432E-2,-7.901874E-2,3.6823183E-2,6.1793078E-2,-6.256711E-2,8.4709434E-4,4.031087E-2],"categories":[],"categories_nodes":[],"categories_segments":[],"categories_sizes":[],"default_left":[0,0,0,0,0,0,0,0,0],"id":28,"left_children":[1,-1,3,-1,5,7,-1,-1,-1],"loss_changes":[1.5612891E1,0E0,1.5630899E1,0E0,1.5542411E1,1.5765988E1,0E0,0E0,0E0],"parents":[2147483647,0,0,2,2,4,4,5,5],"right_children":[2,-1,4,-1,6,8,-1,-1,-1],"split_conditions":[2.7E1,-7.609769E-2,4.7E0,-7.901874E-2,1.79E2,4.46E1,-6.256711E-2,8.4709434E-4,4.031087E-2],"split_indices":[9,0,12,0,6,2,0,0,0],"split_type":[0,0,0,0,0,0,0,0,0],"sum_hessian":[4.9053662E2,5.6850734E0,4.8485153E2,5.051985E0,4.7979956E2,4.7160986E2,8.189691E0,4.457749E2,2.5834957E1],"tree_param":{"num_deleted":"0","num_feature":"19","num_nodes":"9","size_leaf_vector":"1"}},{"base_weights":[-4.3024463E-3,-3.2319833E-2,1.0950727E0,1.0638976E-1,-2.8151414E-1,8.1204E-2,-5.780655E-2,-8.5141286E-2,1.5836778E-1,-7.7600056E-1,3.4635755E-1,-4.1652296E-2,1.2328697E-2,-7.883722E-2,5.3591784E-3,3.139373E-2,-5.0483603E-2],"categories":[],"categories_nodes":[],"categories_segments":[],"categories_sizes":[],"default_left":[0,0,0,0,0,0,0,0,0,0,0,0,0,0,0,0,0],"id":29,"left_children":[1,3,5,7,9,-1,-1,-1,11,13,15,-1,-1,-1,-1,-1,-1],"loss_changes":[1.5152769E1,1.6606676E1,1.643731E1,2.9309898E1,5.359684E1,0E0,0E0,0E0,2.6536217E1,6.834123E1,2.9786541E1,0E0,0E0,0E0,0E0,0E0,0E0],"parents":[2147483647,0,0,1,1,2,2,3,3,4,4,8,8,9,9,10,10],"right_children":[2,4,6,8,10,-1,-1,-1,12,14,16,-1,-1,-1,-1,-1,-1],"split_conditions":[6.2E1,2.1E1,1.06E2,1.7E-1,5.9E0,8.1204E-2,-5.780655E-2,-8.5141286E-2,4.6E1,2.88E1,3.4E1,-4.1652296E-2,1.2328697E-2,-7.883722E-2,5.3591784E-3,3.139373E-2,-5.0483603E-2],"split_indices":[15,15,4,16,12,0,0,0,9,2,14,0,0,0,0,0,0],"split_type":[0,0,0,0,0,0,0,0,0,0,0,0,0,0,0,0,0],"sum_hessian":[4.8979813E2,4.785724E2,1.1225733E1,3.0780902E2,1.7076338E2,9.315313E0,1.9104197E0,7.7092767E0,3.0009973E2,9.539679E1,7.5366585E1,2.3828579E1,2.7627118E2,4.9621696E1,4.577509E1,6.2854687E1,1.2511902E1],"tree_param":{"num_deleted":"0","num_feature":"19","num_nodes":"17","size_leaf_vector":"1"}},{"base_weights":[-4.503158E-3,1.6952498E-2,-7.1211405E-2,-5.033163E-1,7.640451E-2,-1.1257732E0,4.5794874E-1,1.5244812E-1,-7.057737E-1,-7.316634E-2,7.235781E-2,-6.812164E-2,4.6604093E-2,8.039055E-4,3.394005E-2,3.6402445E-2,-7.113243E-2],"categories":[],"categories_nodes":[],"categories_segments":[],"categories_sizes":[],"default_left":[0,0,0,0,0,0,0,0,0,0,0,0,0,0,0,0,0],"id":30,"left_children":[1,3,-1,5,7,9,11,13,15,-1,-1,-1,-1,-1,-1,-1,-1],"loss_changes":[1.494419E1,1.4993677E1,0E0,3.0263119E1,2.5968512E1,2.8576797E1,1.8748655E1,2.8491255E1,4.0816723E1,0E0,0E0,0E0,0E0,0E0,0E0,0E0,0E0],"parents":[2147483647,0,0,1,1,3,3,4,4,5,5,6,6,7,7,8,8],"right_children":[2,4,-1,6,8,10,12,14,16,-1,-1,-1,-1,-1,-1,-1,-1],"split_conditions":[2.75E2,4.5E1,-7.1211405E-2,5.9E0,1.7937703E2,1.5E1,1.12E2,1.4112352E2,7.1E1,-7.316634E-2,7.235781E-2,-6.812164E-2,4.6604093E-2,8.039055E-4,3.394005E-2,3.6402445E-2,-7.113243E-2],"split_indices":[9,9,0,12,18,11,4,18,8,0,0,0,0,0,0,0,0],"split_type":[0,0,0,0,0,0,0,0,0,0,0,0,0,0,0,0,0],"sum_hessian":[4.8880606E2,4.825023E2,6.303778E0,4.871633E1,4.3378595E2,2.9465271E1,1.925106E1,3.9608368E2,3.7702282E1,2.6429174E1,3.0360954E0,3.5908535E0,1.5660207E1,3.153991E2,8.068456E1,1.2561806E1,2.5140476E1],"tree_param":{"num_deleted":"0","num_feature":"19","num_nodes":"17","size_leaf_vector":"1"}},{"base_weights":[-4.5092776E-3,-7.309772E-2,1.519214E-2,3.704995E-1,-7.630242E-2,-1.933008E-1,8.6694914E-1,-1.8923758E-1,4.2443123E-1,9.413926E-3,-7.982553E-2,-6.7306556E-2,5.2604254E-2,6.6271946E-3,-2.2672625E-2,-2.0819945E-2,4.8389144E-2],"categories":[],"categories_nodes":[],"categories_segments":[],"categories_sizes":[],"default_left":[0,0,0,0,0,0,0,0,0,0,0,0,0,0,0,0,0],"id":31,"left_children":[1,-1,3,5,7,9,11,13,15,-1,-1,-1,-1,-1,-1,-1,-1],"loss_changes":[1.4057914E1,0E0,1.5739237E1,2.7915663E1,2.1860657E1,2.559301E1,2.3090122E1,2.6837875E1,3.2926563E1,0E0,0E0,0E0,0E0,0E0,0E0,0E0,0E0],"parents":[2147483647,0,0,2,2,3,3,4,4,5,5,6,6,7,7,8,8],"right_children":[2,-1,4,6,8,10,12,14,16,-1,-1,-1,-1,-1,-1,-1,-1],"split_conditions":[5.1E1,-7.309772E-2,6.2E1,5.9E1,6.7E1,4.8E1,1.1E1,7.7E-1,1.26E2,9.413926E-3,-7.982553E-2,-6.7306556E-2,5.2604254E-2,6.6271946E-3,-2.2672625E-2,-2.0819945E-2,4.8389144E-2],"split_indices":[5,0,5,5,0,0,0,13,4,0,0,0,0,0,0,0,0],"split_type":[0,0,0,0,0,0,0,0,0,0,0,0,0,0,0,0,0],"sum_hessian":[4.87815E2,5.5298467E0,4.8228516E2,9.8136246E1,3.841489E2,4.6237072E1,5.1899174E1,3.139605E2,7.0188385E1,3.7032524E1,9.20455E0,3.5223694E0,4.8376804E1,1.4178368E2,1.7217685E2,2.7643717E1,4.254467E1],"tree_param":{"num_deleted":"0","num_feature":"19","num_nodes":"17","size_leaf_vector":"1"}},{"base_weights":[-4.5818617E-3,-4.6404604E-2,6.9717443E-1,-1.0015118E-2,-5.9389383E-2,9.3109804E-1,-2.5173542E-1,1.5184503E-2,-7.208011E-2,1.0718657E0,1.0234874E-1,-5.391674E-2,3.9146498E-2,7.774282E-3,-1.1999761E-2,2.0275123E-2,5.823409E-2,-4.6445724E-2,4.258017E-2],"categories":[],"categories_nodes":[],"categories_segments":[],"categories_sizes":[],"default_left":[0,0,0,0,0,0,0,0,0,0,0,0,0,0,0,0,0,0,0],"id":32,"left_children":[1,3,5,7,-1,9,11,13,-1,15,17,-1,-1,-1,-1,-1,-1,-1,-1],"loss_changes":[1.4354249E1,1.915499E1,6.3406096E0,1.6191673E1,0E0,2.4896717E0,6.1703444E0,1.5842377E1,0E0,6.9919014E-1,4.145023E0,0E0,0E0,0E0,0E0,0E0,0E0,0E0,0E0],"parents":[2147483647,0,0,1,1,2,2,3,3,5,5,6,6,7,7,9,9,10,10],"right_children":[2,4,6,8,-1,10,12,14,-1,16,18,-1,-1,-1,-1,-1,-1,-1,-1],"split_conditions":[4.46E1,7.3E1,1E0,4.08E1,-5.9389383E-2,1.16E2,1.443E2,2.1E1,-7.208011E-2,1.4E1,1.413E2,-5.391674E-2,3.9146498E-2,7.774282E-3,-1.1999761E-2,2.0275123E-2,5.823409E-2,-4.6445724E-2,4.258017E-2],"split_indices":[2,7,10,2,0,9,3,15,0,14,3,0,0,0,0,0,0,0,0],"split_type":[0,0,0,0,0,0,0,0,0,0,0,0,0,0,0,0,0,0,0],"sum_hessian":[4.8697968E2,4.6047076E2,2.6508915E1,4.4722125E2,1.3249498E1,2.1281425E1,5.2274885E0,4.4045746E2,6.7637935E0,1.7940739E1,3.3406866E0,2.8824658E0,2.345023E0,2.8445248E2,1.5600499E2,2.849799E0,1.509094E1,1.3048817E0,2.0358047E0],"tree_param":{"num_deleted":"0","num_feature":"19","num_nodes":"19","size_leaf_vector":"1"}},{"base_weights":[-4.5271576E-3,1.5290977E-1,-1.8717164E-1,3.4927067E-1,-4.7366956E-1,-1.0826102E0,4.9206182E-2,-7.363122E-2,4.1187027E-1,-6.539844E-1,1.1713579E0,-8.698062E-2,1.2995042E-1,-7.209961E-1,2.364271E-1,3.425205E-2,2.063894E-3,-5.96161E-2,1.5216182E-2,2.4209736E-2,7.411908E-2,-7.139536E-2,4.5725387E-2,-6.951609E-2,4.1951098E-2,-6.943562E-2,1.6221743E-2],"categories":[],"categories_nodes":[],"categories_segments":[],"categories_sizes":[],"default_left":[0,0,0,0,0,0,0,0,0,0,0,0,0,0,0,0,0,0,0,0,0,0,0,0,0,0,0],"id":33,"left_children":[1,3,5,7,9,11,13,-1,15,17,19,-1,21,23,25,-1,-1,-1,-1,-1,-1,-1,-1,-1,-1,-1,-1],"loss_changes":[1.4021757E1,3.2388756E1,4.7831955E1,2.3414856E1,1.9428562E1,3.7817833E1,2.6060366E1,0E0,1.9623856E1,2.9945816E1,6.871424E-1,0E0,2.2710676E1,3.808406E1,2.1216038E1,0E0,0E0,0E0,0E0,0E0,0E0,0E0,0E0,0E0,0E0,0E0,0E0],"parents":[2147483647,0,0,1,1,2,2,3,3,4,4,5,5,6,6,8,8,9,9,10,10,12,12,13,13,14,14],"right_children":[2,4,6,8,10,12,14,-1,16,18,20,-1,22,24,26,-1,-1,-1,-1,-1,-1,-1,-1,-1,-1,-1,-1],"split_conditions":[1.4E0,3E0,2.54E0,5.5E1,1.43E0,1.045E2,7.8E1,-7.363122E-2,1.01593666E2,1.27E2,2E0,-8.698062E-2,1.2433002E2,1.37E2,1E1,3.425205E-2,2.063894E-3,-5.96161E-2,1.5216182E-2,2.4209736E-2,7.411908E-2,-7.139536E-2,4.5725387E-2,-6.951609E-2,4.1951098E-2,-6.943562E-2,1.6221743E-2],"split_indices":[16,11,16,5,13,3,8,0,18,8,1,0,18,6,14,0,0,0,0,0,0,0,0,0,0,0,0],"split_type":[0,0,0,0,0,0,0,0,0,0,0,0,0,0,0,0,0,0,0,0,0,0,0,0,0,0,0],"sum_hessian":[4.8563342E2,2.6090222E2,2.247312E2,1.989856E2,6.1916634E1,4.6187027E1,1.7854417E2,5.861726E0,1.9312387E2,5.6343185E1,5.5734453E0,2.9674063E1,1.6512964E1,3.4356205E1,1.4418796E2,1.1068634E2,8.243752E1,3.5920403E1,2.0422785E1,2.533286E0,3.0401592E0,5.2561216E0,1.1256844E1,2.4117409E1,1.0238797E1,6.6479726E0,1.3754E2],"tree_param":{"num_deleted":"0","num_feature":"19","num_nodes":"27","size_leaf_vector":"1"}},{"base_weights":[-4.732659E-3,-3.1565074E-2,1.0465912E0,-8.096253E-2,6.426153E-1,7.727804E-2,-5.50204E-2,-1.6413546E-1,4.70925E-1,-5.951621E-2,8.2568747E-1,8.100816E-4,-2.4174536E-2,3.4324557E-2,-7.446676E-2,4.8113603E-2,-4.705317E-2],"categories":[],"categories_nodes":[],"categories_segments":[],"categories_sizes":[],"default_left":[0,0,0,0,0,0,0,0,0,0,0,0,0,0,0,0,0],"id":34,"left_children":[1,3,5,7,9,-1,-1,11,13,-1,15,-1,-1,-1,-1,-1,-1],"loss_changes":[1.37149315E1,1.5834536E1,1.4663169E1,2.0386425E1,1.1876763E1,0E0,0E0,2.2194403E1,2.5617744E1,0E0,8.170759E0,0E0,0E0,0E0,0E0,0E0,0E0],"parents":[2147483647,0,0,1,1,2,2,3,3,4,4,7,7,8,8,10,10],"right_children":[2,4,6,8,10,-1,-1,12,14,-1,16,-1,-1,-1,-1,-1,-1],"split_conditions":[6.2E1,8.2E0,8.3E1,1.5E2,7.13E1,7.727804E-2,-5.50204E-2,1.11E2,1E0,-5.951621E-2,5E0,8.100816E-4,-2.4174536E-2,3.4324557E-2,-7.446676E-2,4.8113603E-2,-4.705317E-2],"split_indices":[15,12,15,4,3,0,0,8,13,0,11,0,0,0,0,0,0],"split_type":[0,0,0,0,0,0,0,0,0,0,0,0,0,0,0,0,0],"sum_hessian":[4.8400922E2,4.7290936E2,1.1099854E1,4.414445E2,3.1464895E1,9.233977E0,1.8658768E0,3.8423972E2,5.7204754E1,2.3576722E0,2.9107224E1,2.4617574E2,1.3806398E2,5.212271E1,5.082041E0,2.7441137E1,1.6660849E0],"tree_param":{"num_deleted":"0","num_feature":"19","num_nodes":"17","size_leaf_vector":"1"}},{"base_weights":[-4.68771E-3,1.8170819E-2,-6.088102E-2,-6.6800795E-2,3.9143175E-2,-9.1816396E-1,6.863667E-2,-8.385156E-2,6.1130624E-2,1.9930757E-3,6.105679E-2],"categories":[],"categories_nodes":[],"categories_segments":[],"categories_sizes":[],"default_left":[0,0,0,0,0,0,0,0,0,0,0],"id":35,"left_children":[1,3,-1,-1,5,7,9,-1,-1,-1,-1],"loss_changes":[1.3443974E1,1.3574402E1,0E0,0E0,1.332843E1,2.4976078E1,1.5097712E1,0E0,0E0,0E0,0E0],"parents":[2147483647,0,0,1,1,4,4,5,5,6,6],"right_children":[2,4,-1,-1,6,8,10,-1,-1,-1,-1],"split_conditions":[1.79E2,8E0,-6.088102E-2,-6.6800795E-2,5.5E1,1.37E0,6.2E1,-8.385156E-2,6.1130624E-2,1.9930757E-3,6.105679E-2],"split_indices":[6,14,0,0,8,13,15,0,0,0,0],"split_type":[0,0,0,0,0,0,0,0,0,0,0],"sum_hessian":[4.8309134E2,4.7512234E2,7.9689803E0,6.2897396E0,4.688326E2,1.3111911E1,4.557207E2,9.840318E0,3.2715929E0,4.45629E2,1.0091707E1],"tree_param":{"num_deleted":"0","num_feature":"19","num_nodes":"11","size_leaf_vector":"1"}},{"base_weights":[-4.665887E-3,-4.4041235E-2,6.7663324E-1,-9.821504E-3,-5.820757E-2,8.8123806E-2,1.0587366E0,-1.7898107E-1,1.9683698E-1,-5.8779866E-2,5.407217E-2,5.9014823E-2,1.5814722E-2,-4.7549577E-3,-7.98658E-2,1.5026924E-2,-4.757098E-2],"categories":[],"categories_nodes":[],"categories_segments":[],"categories_sizes":[],"default_left":[0,0,0,0,0,0,0,0,0,0,0,0,0,0,0,0,0],"id":36,"left_children":[1,3,5,7,-1,9,11,13,15,-1,-1,-1,-1,-1,-1,-1,-1],"loss_changes":[1.3000375E1,1.754451E1,5.860854E0,1.5607494E1,0E0,1.5725202E1,1.0674095E0,2.9052769E1,2.4217735E1,0E0,0E0,0E0,0E0,0E0,0E0,0E0,0E0],"parents":[2147483647,0,0,1,1,2,2,3,3,5,5,6,6,7,7,8,8],"right_children":[2,4,6,8,-1,10,12,14,16,-1,-1,-1,-1,-1,-1,-1,-1],"split_conditions":[4.46E1,7.3E1,1E0,1E0,-5.820757E-2,7.8E1,1.14E2,1.163E2,3.3E1,-5.8779866E-2,5.407217E-2,5.9014823E-2,1.5814722E-2,-4.7549577E-3,-7.98658E-2,1.5026924E-2,-4.757098E-2],"split_indices":[2,7,13,10,0,7,9,3,14,0,0,0,0,0,0,0,0],"split_type":[0,0,0,0,0,0,0,0,0,0,0,0,0,0,0,0,0],"sum_hessian":[4.8250058E2,4.5702255E2,2.5478037E1,4.4445312E2,1.2569419E1,1.0514461E1,1.4963575E1,2.4447386E2,1.9997928E2,4.546636E0,5.967825E0,1.2351517E1,2.612058E0,2.318302E2,1.2643649E1,1.8409181E2,1.5887461E1],"tree_param":{"num_deleted":"0","num_feature":"19","num_nodes":"17","size_leaf_vector":"1"}},{"base_weights":[-4.6815304E-3,1.5205009E-2,-6.7488074E-2,-4.94713E-3,7.0367254E-2,-4.9762842E-1,8.454757E-2,3.737635E-2,-4.434508E-2,5.8697574E-3,-6.7060284E-2],"categories":[],"categories_nodes":[],"categories_segments":[],"categories_sizes":[],"default_left":[0,0,0,0,0,0,0,0,0,0,0],"id":37,"left_children":[1,3,-1,5,-1,7,9,-1,-1,-1,-1],"loss_changes":[1.2909336E1,1.3355672E1,0E0,2.0766317E1,0E0,3.5755013E1,1.8825848E1,0E0,0E0,0E0,0E0],"parents":[2147483647,0,0,1,1,3,3,5,5,6,6],"right_children":[2,4,-1,6,-1,8,10,-1,-1,-1,-1],"split_conditions":[2.75E2,2.7E2,-6.7488074E-2,1.2E1,7.0367254E-2,1.63E1,1.66E2,3.737635E-2,-4.434508E-2,5.8697574E-3,-6.7060284E-2],"split_indices":[9,9,0,14,0,2,6,0,0,0,0],"split_type":[0,0,0,0,0,0,0,0,0,0,0],"sum_hessian":[4.8084302E2,4.7481177E2,6.031231E0,4.6901886E2,5.7929087E0,7.1398636E1,3.9762024E2,1.678588E1,5.4612755E1,3.8956287E2,8.057381E0],"tree_param":{"num_deleted":"0","num_feature":"19","num_nodes":"11","size_leaf_vector":"1"}},{"base_weights":[-4.6133366E-3,-7.328608E-2,1.3481219E-2,-1.8266661E-2,9.140177E-1,-5.8740926E-1,4.177417E-2,7.2895266E-2,-6.421708E-2,-6.0623944E-2,9.423626E-3,6.214528E-3,-4.3692436E-2],"categories":[],"categories_nodes":[],"categories_segments":[],"categories_sizes":[],"default_left":[0,0,0,0,0,0,0,0,0,0,0,0,0],"id":38,"left_children":[1,-1,3,5,7,9,11,-1,-1,-1,-1,-1,-1],"loss_changes":[1.2738343E1,0E0,1.3630636E1,1.5775724E1,2.1284273E1,2.159307E1,3.168173E1,0E0,0E0,0E0,0E0,0E0,0E0],"parents":[2147483647,0,0,2,2,3,3,4,4,5,5,6,6],"right_children":[2,-1,4,6,8,10,12,-1,-1,-1,-1,-1,-1],"split_conditions":[4.7E0,-7.328608E-2,1.01E2,4.5E1,4.4E1,2.4E1,1.7937703E2,7.2895266E-2,-6.421708E-2,-6.0623944E-2,9.423626E-3,6.214528E-3,-4.3692436E-2],"split_indices":[12,0,5,9,7,15,18,0,0,0,0,0,0],"split_type":[0,0,0,0,0,0,0,0,0,0,0,0,0],"sum_hessian":[4.800702E2,4.893873E0,4.7517633E2,4.599411E2,1.5235235E1,4.305243E1,4.1688867E2,1.248355E1,2.7516854E0,2.3531866E1,1.9520565E1,3.832172E2,3.3671463E1],"tree_param":{"num_deleted":"0","num_feature":"19","num_nodes":"13","size_leaf_vector":"1"}},{"base_weights":[-4.7289515E-3,-4.270909E-2,6.6994715E-1,-1.0218453E-2,-5.730302E-2,8.975438E-1,-2.4975401E-1,7.403078E-2,-3.9618456E-1,1.0338199E0,9.180711E-2,-5.123446E-2,3.714736E-2,1.1629235E-2,-1.0956311E-2,-8.161133E-2,-5.452085E-3,2.0668829E-2,5.5946838E-2,-4.355588E-2,4.029305E-2],"categories":[],"categories_nodes":[],"categories_segments":[],"categories_sizes":[],"default_left":[0,0,0,0,0,0,0,0,0,0,0,0,0,0,0,0,0,0,0,0,0],"id":39,"left_children":[1,3,5,7,-1,9,11,13,15,17,19,-1,-1,-1,-1,-1,-1,-1,-1,-1,-1],"loss_changes":[1.2335476E1,1.632181E1,5.594486E0,1.4454062E1,0E0,2.1872368E0,5.2783713E0,1.701488E1,2.808724E1,4.71138E-1,3.5239558E0,0E0,0E0,0E0,0E0,0E0,0E0,0E0,0E0,0E0,0E0],"parents":[2147483647,0,0,1,1,2,2,3,3,5,5,6,6,7,7,8,8,9,9,10,10],"right_children":[2,4,6,8,-1,10,12,14,16,18,20,-1,-1,-1,-1,-1,-1,-1,-1,-1,-1],"split_conditions":[4.46E1,7.3E1,1E0,3.15E1,-5.730302E-2,1.16E2,1.443E2,2.1E1,1.4E1,1.4E1,1.413E2,-5.123446E-2,3.714736E-2,1.1629235E-2,-1.0956311E-2,-8.161133E-2,-5.452085E-3,2.0668829E-2,5.5946838E-2,-4.355588E-2,4.029305E-2],"split_indices":[2,7,10,2,0,9,3,15,14,14,3,0,0,0,0,0,0,0,0,0,0],"split_type":[0,0,0,0,0,0,0,0,0,0,0,0,0,0,0,0,0,0,0,0,0],"sum_hessian":[4.7928116E2,4.546252E2,2.4655924E1,4.426011E2,1.2024114E1,1.9784086E1,4.871837E0,3.6396295E2,7.863816E1,1.6679901E1,3.104185E0,2.7179177E0,2.1539192E0,2.3634332E2,1.2761963E2,1.3941383E1,6.469678E1,2.7187407E0,1.3961161E1,1.2280965E0,1.8760885E0],"tree_param":{"num_deleted":"0","num_feature":"19","num_nodes":"21","size_leaf_vector":"1"}},{"base_weights":[-4.696865E-3,1.4308684E-1,-1.7650892E-1,3.276036E-1,-4.4711602E-1,-1.0219771E0,4.5829844E-2,-7.091256E-2,3.8664085E-1,-6.200496E-1,1.1261891E0,-8.3206974E-2,1.5523085E-1,-6.857903E-1,2.2263676E-1,1.3932905E-2,6.387765E-2,-5.712862E-2,1.5011884E-2,2.319168E-2,7.071656E-2,-6.777851E-2,4.4663824E-2,-6.541219E-2,3.9693218E-2,-6.5336235E-2,1.5110621E-2],"categories":[],"categories_nodes":[],"categories_segments":[],"categories_sizes":[],"default_left":[0,0,0,0,0,0,0,0,0,0,0,0,0,0,0,0,0,0,0,0,0,0,0,0,0,0,0],"id":40,"left_children":[1,3,5,7,9,11,13,-1,15,17,19,-1,21,23,25,-1,-1,-1,-1,-1,-1,-1,-1,-1,-1,-1,-1],"loss_changes":[1.2183445E1,2.82402E1,4.1753357E1,2.0864271E1,1.7530247E1,3.521381E1,2.3000284E1,0E0,1.8061674E1,2.745597E1,5.810261E-1,0E0,2.0429132E1,3.292585E1,1.779856E1,0E0,0E0,0E0,0E0,0E0,0E0,0E0,0E0,0E0,0E0,0E0,0E0],"parents":[2147483647,0,0,1,1,2,2,3,3,4,4,5,5,6,6,8,8,9,9,10,10,12,12,13,13,14,14],"right_children":[2,4,6,8,10,12,14,-1,16,18,20,-1,22,24,26,-1,-1,-1,-1,-1,-1,-1,-1,-1,-1,-1,-1],"split_conditions":[1.4E0,3E0,2.54E0,5.5E1,1.43E0,1.045E2,7.8E1,-7.091256E-2,1.29E0,1.27E2,2E0,-8.3206974E-2,1.2433002E2,1.37E2,1E1,1.3932905E-2,6.387765E-2,-5.712862E-2,1.5011884E-2,2.319168E-2,7.071656E-2,-6.777851E-2,4.4663824E-2,-6.541219E-2,3.9693218E-2,-6.5336235E-2,1.5110621E-2],"split_indices":[16,11,16,5,13,3,8,0,16,8,1,0,18,6,14,0,0,0,0,0,0,0,0,0,0,0,0],"split_type":[0,0,0,0,0,0,0,0,0,0,0,0,0,0,0,0,0,0,0,0,0,0,0,0,0,0,0],"sum_hessian":[4.778381E2,2.5697174E2,2.2086638E2,1.9610713E2,6.0864597E1,4.523994E1,1.7562643E2,5.661507E0,1.9044563E2,5.5382942E1,5.481655E0,2.9004477E1,1.6235464E1,3.3621838E1,1.4200461E2,1.710289E2,1.941673E1,3.5171597E1,2.0211346E1,2.4528959E0,3.0287595E0,5.0536966E0,1.1181767E1,2.3747644E1,9.874194E0,6.2606297E0,1.3574397E2],"tree_param":{"num_deleted":"0","num_feature":"19","num_nodes":"27","size_leaf_vector":"1"}},{"base_weights":[-4.8002712E-3,-3.0127237E-2,9.903162E-1,-7.58791E-2,6.0391283E-1,7.325306E-2,-5.306205E-2,-6.707863E-2,-4.4082526E-2,-5.7499796E-2,7.815504E-1,-6.12076E-3,2.3668258E-2,-5.188256E-2,4.5249335E-2],"categories":[],"categories_nodes":[],"categories_segments":[],"categories_sizes":[],"default_left":[0,0,0,0,0,0,0,0,0,0,0,0,0,0,0],"id":41,"left_children":[1,3,5,7,9,-1,-1,-1,11,-1,13,-1,-1,-1,-1],"loss_changes":[1.204877E1,1.3564203E1,1.3111351E1,1.7468985E1,1.0705337E1,0E0,0E0,0E0,1.7320944E1,0E0,7.4907665E0,0E0,0E0,0E0,0E0],"parents":[2147483647,0,0,1,1,2,2,3,3,4,4,8,8,10,10],"right_children":[2,4,6,8,10,-1,-1,-1,12,-1,14,-1,-1,-1,-1],"split_conditions":[6.2E1,8.2E0,1.06E2,1.3E1,7.13E1,7.325306E-2,-5.306205E-2,-6.707863E-2,1.5E2,-5.7499796E-2,1.01E2,-6.12076E-3,2.3668258E-2,-5.188256E-2,4.5249335E-2],"split_indices":[15,12,4,15,3,0,0,0,4,0,4,0,0,0,0],"split_type":[0,0,0,0,0,0,0,0,0,0,0,0,0,0,0],"sum_hessian":[4.758797E2,4.6501422E2,1.0865471E1,4.3453857E2,3.0475655E1,9.0557785E0,1.8096932E0,9.639426E0,4.2489914E2,2.2993302E0,2.8176325E1,3.6969684E2,5.5202312E1,1.3197348E0,2.685659E1],"tree_param":{"num_deleted":"0","num_feature":"19","num_nodes":"15","size_leaf_vector":"1"}},{"base_weights":[-4.756242E-3,-6.741767E-2,1.3166444E-2,3.2274026E-2,-6.4713836E-2,-7.24308E-2,4.8964866E-2,-6.550548E-4,3.71681E-2],"categories":[],"categories_nodes":[],"categories_segments":[],"categories_sizes":[],"default_left":[0,0,0,0,0,0,0,0,0],"id":42,"left_children":[1,-1,3,5,-1,-1,7,-1,-1],"loss_changes":[1.1478442E1,0E0,1.1799597E1,1.156069E1,0E0,0E0,1.9862312E1,0E0,0E0],"parents":[2147483647,0,0,2,2,3,3,6,6],"right_children":[2,-1,4,6,-1,-1,8,-1,-1],"split_conditions":[2.7E1,-6.741767E-2,2.75E2,4.355281E1,-6.4713836E-2,-7.24308E-2,1.24E0,-6.550548E-4,3.71681E-2],"split_indices":[9,0,9,18,0,0,13,0,0],"split_type":[0,0,0,0,0,0,0,0,0],"sum_hessian":[4.7492508E2,5.274623E0,4.6965048E2,4.6384692E2,5.803559E0,4.2135086E0,4.596334E2,4.2282224E2,3.6811172E1],"tree_param":{"num_deleted":"0","num_feature":"19","num_nodes":"9","size_leaf_vector":"1"}},{"base_weights":[-4.889073E-3,-6.761741E-2,1.2827301E-2,3.535472E-1,-7.527043E-2,-7.584292E-2,4.8077065E-1,5.291722E-1,-1.5989739E-1,2.9938012E-2,-6.64662E-2,-3.509244E-2,4.6060055E-2,7.976854E-3,-2.322231E-2],"categories":[],"categories_nodes":[],"categories_segments":[],"categories_sizes":[],"default_left":[0,0,0,0,0,0,0,0,0,0,0,0,0,0,0],"id":43,"left_children":[1,-1,3,5,7,-1,9,11,13,-1,-1,-1,-1,-1,-1],"loss_changes":[1.1368444E1,0E0,1.4143937E1,2.3763481E1,1.9241987E1,0E0,2.0315046E1,2.2955894E1,3.210852E1,0E0,0E0,0E0,0E0,0E0,0E0],"parents":[2147483647,0,0,2,2,3,3,4,4,6,6,7,7,8,8],"right_children":[2,-1,4,6,8,-1,10,12,14,-1,-1,-1,-1,-1,-1],"split_conditions":[5.1E1,-6.761741E-2,6.2E1,6.335316E1,5.9483025E1,-7.584292E-2,1.7937703E2,5.6E1,7.7E-1,2.9938012E-2,-6.64662E-2,-3.509244E-2,4.6060055E-2,7.976854E-3,-2.322231E-2],"split_indices":[5,0,5,18,18,0,18,0,13,0,0,0,0,0,0],"split_type":[0,0,0,0,0,0,0,0,0,0,0,0,0,0,0],"sum_hessian":[4.7449658E2,5.1800866E0,4.693165E2,9.579893E1,3.7351758E2,5.4055257E0,9.03934E1,4.5227814E1,3.2828976E2,8.549001E1,4.9033895E0,1.0733367E1,3.4494446E1,1.6046147E2,1.678283E2],"tree_param":{"num_deleted":"0","num_feature":"19","num_nodes":"15","size_leaf_vector":"1"}},{"base_weights":[-5.041187E-3,-8.8773304E-1,2.2412453E-2,-7.840269E-2,5.602286E-2,-4.434504E-3,1.1216409E0,-1.6493939E-1,1.9439596E-1,7.427232E-2,-4.4593617E-2,-1.2701519E-2,4.375947E-2,1.4134391E-2,-4.2539332E-2],"categories":[],"categories_nodes":[],"categories_segments":[],"categories_sizes":[],"default_left":[0,0,0,0,0,0,0,0,0,0,0,0,0,0,0],"id":44,"left_children":[1,3,5,-1,-1,7,9,11,13,-1,-1,-1,-1,-1,-1],"loss_changes":[1.152211E1,2.1351086E1,1.3618571E1,0E0,0E0,1.4434671E1,9.384113E0,2.3413012E1,1.8885351E1,0E0,0E0,0E0,0E0,0E0,0E0],"parents":[2147483647,0,0,1,1,2,2,5,5,6,6,7,7,8,8],"right_children":[2,4,6,-1,-1,8,10,12,14,-1,-1,-1,-1,-1,-1],"split_conditions":[5.5E1,1.37E0,6.2E1,-7.840269E-2,5.602286E-2,1E0,1.06E2,4.46E1,3.3E1,7.427232E-2,-4.4593617E-2,-1.2701519E-2,4.375947E-2,1.4134391E-2,-4.2539332E-2],"split_indices":[8,13,15,0,0,10,4,2,14,0,0,0,0,0,0],"split_type":[0,0,0,0,0,0,0,0,0,0,0,0,0,0,0],"sum_hessian":[4.7364877E2,1.3341936E1,4.6030682E2,1.0129503E1,3.2124324E0,4.503048E2,1.0002033E1,2.4926077E2,2.0104404E2,8.693531E0,1.308502E0,2.3029123E2,1.896955E1,1.8605644E2,1.4987592E1],"tree_param":{"num_deleted":"0","num_feature":"19","num_nodes":"15","size_leaf_vector":"1"}},{"base_weights":[-4.764965E-3,-3.4077164E-2,8.0988663E-1,4.7498357E-1,-9.046612E-2,1.3476582E0,-6.3041575E-2,-8.0276257E-1,8.7202865E-1,-7.5023435E-2,-4.594761E-2,7.594057E-2,3.2002702E-2,5.7535805E-2,-7.870561E-2,-6.540066E-2,5.7547726E-2,-5.3376425E-2,5.1529027E-5],"categories":[],"categories_nodes":[],"categories_segments":[],"categories_sizes":[],"default_left":[0,0,0,0,0,0,0,0,0,0,0,0,0,0,0,0,0,0,0],"id":45,"left_children":[1,3,5,7,9,11,-1,13,15,-1,17,-1,-1,-1,-1,-1,-1,-1,-1],"loss_changes":[1.1334388E1,1.3190425E1,2.0057251E1,2.3953144E1,2.5866756E1,6.7136955E-1,0E0,1.8969206E1,2.3060394E1,0E0,1.9272955E1,0E0,0E0,0E0,0E0,0E0,0E0,0E0,0E0],"parents":[2147483647,0,0,1,1,2,2,3,3,4,4,5,5,7,7,8,8,10,10],"right_children":[2,4,6,8,10,12,-1,14,16,-1,18,-1,-1,-1,-1,-1,-1,-1,-1],"split_conditions":[1.01E2,8.9E1,4.4E1,8.5E1,3.4E1,8.4E-1,-6.3041575E-2,6E-1,1.2E1,-7.5023435E-2,6E1,7.594057E-2,3.2002702E-2,5.7535805E-2,-7.870561E-2,-6.540066E-2,5.7547726E-2,-5.3376425E-2,5.1529027E-5],"split_indices":[5,6,7,6,9,16,0,13,14,0,8,0,0,0,0,0,0,0,0],"split_type":[0,0,0,0,0,0,0,0,0,0,0,0,0,0,0,0,0,0,0],"sum_hessian":[4.7249893E2,4.5701318E2,1.5485744E1,4.483494E1,4.1217825E2,1.2570367E1,2.9153774E0,1.0386832E1,3.444811E1,1.16145525E1,4.005637E2,9.198938E0,3.3714287E0,2.8010986E0,7.5857334E0,3.4890172E0,3.0959091E1,1.6655334E1,3.8390836E2],"tree_param":{"num_deleted":"0","num_feature":"19","num_nodes":"19","size_leaf_vector":"1"}},{"base_weights":[-4.785614E-3,1.5693642E-2,-5.7908285E-2,-1.9366313E-2,7.5238585E-1,-7.8653854E-1,2.5152586E-2,-5.432899E-2,1.0032034E0,-5.4552235E-2,4.2077437E-2,2.6154667E-3,-6.909332E-2,-4.6259757E-2,5.920596E-2],"categories":[],"categories_nodes":[],"categories_segments":[],"categories_sizes":[],"default_left":[0,0,0,0,0,0,0,0,0,0,0,0,0,0,0],"id":46,"left_children":[1,3,-1,5,7,9,11,-1,13,-1,-1,-1,-1,-1,-1],"loss_changes":[1.11804695E1,1.2032855E1,0E0,1.5223252E1,1.0851758E1,1.3037639E1,1.6185575E1,0E0,7.774338E0,0E0,0E0,0E0,0E0,0E0,0E0],"parents":[2147483647,0,0,1,1,3,3,4,4,5,5,6,6,8,8],"right_children":[2,4,-1,6,8,10,12,-1,14,-1,-1,-1,-1,-1,-1],"split_conditions":[1.79E2,1.61E2,-5.7908285E-2,1.4E1,2E0,2.19E2,2.42E2,-5.432899E-2,4.5E1,-5.4552235E-2,4.2077437E-2,2.6154667E-3,-6.909332E-2,-4.6259757E-2,5.920596E-2],"split_indices":[6,6,0,15,11,9,9,0,7,0,0,0,0,0,0],"split_type":[0,0,0,0,0,0,0,0,0,0,0,0,0,0,0],"sum_hessian":[4.7157074E2,4.6431284E2,7.2578807E0,4.4414905E2,2.0163807E1,2.344612E1,4.207029E2,2.02015E0,1.8143658E1,2.0029753E1,3.4163651E0,4.136813E2,7.0216036E0,1.2033271E0,1.694033E1],"tree_param":{"num_deleted":"0","num_feature":"19","num_nodes":"15","size_leaf_vector":"1"}},{"base_weights":[-4.954777E-3,-6.922833E-2,1.2048434E-2,-1.7751452E-2,8.634426E-1,5.1790625E-1,-7.5539514E-2,6.786105E-2,-5.9015434E-2,-3.6522545E-2,4.4645753E-2,-7.2940454E-2,-1.6147377E-3],"categories":[],"categories_nodes":[],"categories_segments":[],"categories_sizes":[],"default_left":[0,0,0,0,0,0,0,0,0,0,0,0,0],"id":47,"left_children":[1,-1,3,5,7,9,11,-1,-1,-1,-1,-1,-1],"loss_changes":[1.1077254E1,0E0,1.1857697E1,1.4029215E1,1.7551563E1,2.1314919E1,2.4408009E1,0E0,0E0,0E0,0E0,0E0,0E0],"parents":[2147483647,0,0,2,2,3,3,4,4,5,5,6,6],"right_children":[2,-1,4,6,8,10,12,-1,-1,-1,-1,-1,-1],"split_conditions":[4.7E0,-6.922833E-2,1.01E2,8.9E1,4.4E1,8.5E1,3.4E1,6.786105E-2,-5.9015434E-2,-3.6522545E-2,4.4645753E-2,-7.2940454E-2,-1.6147377E-3],"split_indices":[12,0,5,6,7,6,9,0,0,0,0,0,0],"split_type":[0,0,0,0,0,0,0,0,0,0,0,0,0],"sum_hessian":[4.7050876E2,4.749051E0,4.657597E2,4.5095486E2,1.4804848E1,4.313737E1,4.078175E2,1.219452E1,2.6103275E0,9.7460785E0,3.3391293E1,1.1370659E1,3.9644684E2],"tree_param":{"num_deleted":"0","num_feature":"19","num_nodes":"13","size_leaf_vector":"1"}},{"base_weights":[-4.9902215E-3,-3.7495345E-2,6.8666184E-1,-7.4276365E-2,-9.93104E-3,-6.257392E-2,1.0884079E0,7.9674256E-1,-7.881174E-2,-5.28816E-2,1.3534726E0,-6.477263E-2,5.3430606E-2,-7.358847E-2,-1.0250744E-3,8.300072E-2,3.830497E-2],"categories":[],"categories_nodes":[],"categories_segments":[],"categories_sizes":[],"default_left":[0,0,0,0,0,0,0,0,0,0,0,0,0,0,0,0,0],"id":48,"left_children":[1,3,5,-1,7,-1,9,11,13,-1,15,-1,-1,-1,-1,-1,-1],"loss_changes":[1.0610541E1,1.7971382E1,1.7857468E1,0E0,2.4689491E1,0E0,1.1717424E1,2.126852E1,3.3210907E1,0E0,1.7051239E0,0E0,0E0,0E0,0E0,0E0,0E0],"parents":[2147483647,0,0,1,1,2,2,4,4,6,6,7,7,8,8,10,10],"right_children":[2,4,6,-1,8,-1,10,12,14,-1,16,-1,-1,-1,-1,-1,-1],"split_conditions":[1E1,8.5E1,1E0,-7.4276365E-2,8.9E1,-6.257392E-2,6.5E1,1.2E1,3.7E1,-5.28816E-2,7.22E1,-6.477263E-2,5.3430606E-2,-7.358847E-2,-1.0250744E-3,8.300072E-2,3.830497E-2],"split_indices":[11,6,10,0,6,0,5,14,9,0,3,0,0,0,0,0,0],"split_type":[0,0,0,0,0,0,0,0,0,0,0,0,0,0,0,0,0],"sum_hessian":[4.69807E2,4.496222E2,2.0184816E1,7.410944E0,4.4221124E2,3.102475E0,1.708234E1,3.395787E1,4.082534E2,1.549231E0,1.553311E1,3.4722102E0,3.048566E1,1.5429199E1,3.928242E2,9.00655E0,6.5265594E0],"tree_param":{"num_deleted":"0","num_feature":"19","num_nodes":"17","size_leaf_vector":"1"}},{"base_weights":[-5.0976635E-3,-3.451178E-2,7.639662E-1,9.504081E-2,-2.777952E-1,1.3388206E0,-6.328308E-2,-7.8507364E-2,1.4316067E-1,-7.8770876E-1,3.4715047E-1,4.7825208E-1,8.195834E-2,9.923351E-3,-5.0213963E-2,-8.269086E-2,6.330629E-3,-7.205471E-2,2.4873959E-2,-4.6678863E-2,5.839605E-2],"categories":[],"categories_nodes":[],"categories_segments":[],"categories_sizes":[],"default_left":[0,0,1,0,0,0,0,0,0,0,0,0,0,0,0,0,0,0,0,0,0],"id":49,"left_children":[1,3,5,7,9,11,-1,-1,13,15,17,19,-1,-1,-1,-1,-1,-1,-1,-1,-1],"loss_changes":[1.0654102E1,1.4318563E1,2.1937403E1,2.3993942E1,5.056656E1,2.8363E0,0E0,0E0,1.8553596E1,6.92758E1,1.9966583E1,5.9935303E0,0E0,0E0,0E0,0E0,0E0,0E0,0E0,0E0,0E0],"parents":[2147483647,0,0,1,1,2,2,3,3,4,4,5,5,8,8,9,9,10,10,11,11],"right_children":[2,4,6,8,10,12,-1,-1,14,16,18,20,-1,-1,-1,-1,-1,-1,-1,-1,-1],"split_conditions":[6.4E1,2.1E1,1E0,1.7E-1,5.9E0,2E0,-6.328308E-2,-7.8507364E-2,2.2174487E2,2.88E1,6.23E1,1.41E2,8.195834E-2,9.923351E-3,-5.0213963E-2,-8.269086E-2,6.330629E-3,-7.205471E-2,2.4873959E-2,-4.6678863E-2,5.839605E-2],"split_indices":[14,15,10,16,12,11,0,0,18,2,3,4,0,0,0,0,0,0,0,0,0],"split_type":[0,0,0,0,0,0,0,0,0,0,0,0,0,0,0,0,0,0,0,0,0],"sum_hessian":[4.6881033E2,4.5246036E2,1.6349968E1,2.956376E2,1.5682275E2,1.3006485E1,3.3434842E0,7.414903E0,2.8822272E2,8.621593E1,7.0606834E1,4.03565E0,8.970835E0,2.7575824E2,1.2464451E1,4.3859955E1,4.2355972E1,4.809448E0,6.5797386E1,1.2083538E0,2.8272958E0],"tree_param":{"num_deleted":"0","num_feature":"19","num_nodes":"21","size_leaf_vector":"1"}},{"base_weights":[-5.39106E-3,1.3266797E-1,-1.667785E-1,3.055481E-1,-4.2186213E-1,-9.488626E-1,3.6624853E-2,6.63028E-1,4.14781E-2,-5.906655E-1,1.1087834E0,-7.8560464E-2,1.7149203E-1,-6.623465E-1,2.016933E-1,-7.385287E-2,3.980608E-2,6.286015E-2,-1.1410023E-2,-5.409907E-2,1.3364807E-2,2.3100523E-2,6.857915E-2,4.1760366E-2,-6.681331E-2,-6.1861712E-2,3.695723E-2,4.799248E-2,2.6149226E-3],"categories":[],"categories_nodes":[],"categories_segments":[],"categories_sizes":[],"default_left":[0,0,0,0,0,0,0,0,0,0,0,0,0,0,0,0,0,0,0,0,0,0,0,0,0,0,0,0,0],"id":50,"left_children":[1,3,5,7,9,11,13,15,17,19,21,-1,23,25,27,-1,-1,-1,-1,-1,-1,-1,-1,-1,-1,-1,-1,-1,-1],"loss_changes":[1.0452835E1,2.4370293E1,3.4440186E1,1.8224413E1,1.6291214E1,3.142043E1,2.0048147E1,2.4554379E1,3.7094814E1,2.3540167E1,4.470997E-1,0E0,1.7984695E1,2.767009E1,1.5851552E1,0E0,0E0,0E0,0E0,0E0,0E0,0E0,0E0,0E0,0E0,0E0,0E0,0E0,0E0],"parents":[2147483647,0,0,1,1,2,2,3,3,4,4,5,5,6,6,7,7,8,8,9,9,10,10,12,12,13,13,14,14],"right_children":[2,4,6,8,10,12,14,16,18,20,22,-1,24,26,28,-1,-1,-1,-1,-1,-1,-1,-1,-1,-1,-1,-1,-1,-1],"split_conditions":[1.4E0,3E0,2.54E0,8.8E1,1.43E0,1.045E2,7.8E1,1.5E1,1.55E1,1.27E2,2E0,-7.8560464E-2,5.6E0,1.37E2,3.7E1,-7.385287E-2,3.980608E-2,6.286015E-2,-1.1410023E-2,-5.409907E-2,1.3364807E-2,2.3100523E-2,6.857915E-2,4.1760366E-2,-6.681331E-2,-6.1861712E-2,3.695723E-2,4.799248E-2,2.6149226E-3],"split_indices":[16,11,16,8,13,3,8,15,2,8,1,0,12,6,7,0,0,0,0,0,0,0,0,0,0,0,0,0,0],"split_type":[0,0,0,0,0,0,0,0,0,0,0,0,0,0,0,0,0,0,0,0,0,0,0,0,0,0,0,0,0],"sum_hessian":[4.6714377E2,2.5186423E2,2.1527953E2,1.9234714E2,5.9517086E1,4.3676983E1,1.7160255E2,8.107821E1,1.11268936E2,5.4158463E1,5.3586226E0,2.782052E1,1.5856463E1,3.220788E1,1.3939467E2,4.1558647E0,7.692234E1,1.9536324E1,9.173261E1,3.4271572E1,1.988689E1,2.3451166E0,3.0135062E0,1.1319624E1,4.5368395E0,2.292238E1,9.285496E0,2.2053185E1,1.17341484E2],"tree_param":{"num_deleted":"0","num_feature":"19","num_nodes":"29","size_leaf_vector":"1"}},{"base_weights":[-5.2073603E-3,1.4340194E-2,-5.6706645E-2,-6.48375E-2,3.155502E-2,3.3961043E-1,-4.876985E-2,-8.998083E-3,3.981431E-2,2.6559895E-2,-6.4980783E-3],"categories":[],"categories_nodes":[],"categories_segments":[],"categories_sizes":[],"default_left":[0,0,0,0,0,0,0,0,0,0,0],"id":51,"left_children":[1,3,-1,-1,5,7,9,-1,-1,-1,-1],"loss_changes":[1.0300474E1,1.0402551E1,0E0,0E0,1.1253326E1,2.2457905E1,1.7071136E1,0E0,0E0,0E0,0E0],"parents":[2147483647,0,0,1,1,4,4,5,5,6,6],"right_children":[2,4,-1,-1,6,8,10,-1,-1,-1,-1],"split_conditions":[1.79E2,5.1E1,-5.6706645E-2,-6.48375E-2,6.2E1,5.9E1,5.9483025E1,-8.998083E-3,3.981431E-2,2.6559895E-2,-6.4980783E-3],"split_indices":[6,5,0,0,5,5,18,0,0,0,0],"split_type":[0,0,0,0,0,0,0,0,0,0,0],"sum_hessian":[4.6502936E2,4.5808484E2,6.9445267E0,4.973493E0,4.5311133E2,9.304495E1,3.600664E2,4.3808636E1,4.9236317E1,4.3536243E1,3.1653015E2],"tree_param":{"num_deleted":"0","num_feature":"19","num_nodes":"11","size_leaf_vector":"1"}},{"base_weights":[-5.1102783E-3,-3.960487E-2,6.319056E-1,-9.798131E-3,-5.5842694E-2,8.476256E-1,-3.2367676E-1,7.3902085E-2,-3.9655745E-1,3.5982305E-1,5.644958E-2,-5.2835684E-2,3.7434384E-2,1.0916537E-2,-9.758676E-3,1.9536844E-2,-4.0285293E-2,-4.9160462E-2,5.1289167E-2],"categories":[],"categories_nodes":[],"categories_segments":[],"categories_sizes":[],"default_left":[0,0,0,0,0,0,0,0,0,0,0,0,0,0,0,0,0,0,0],"id":52,"left_children":[1,3,5,7,-1,9,11,13,15,17,-1,-1,-1,-1,-1,-1,-1,-1,-1],"loss_changes":[1.0249796E1,1.4192875E1,5.213813E0,1.3996373E1,0E0,2.314784E0,4.8290534E0,1.3859649E1,2.5091778E1,8.807734E0,0E0,0E0,0E0,0E0,0E0,0E0,0E0,0E0,0E0],"parents":[2147483647,0,0,1,1,2,2,3,3,5,5,6,6,7,7,8,8,9,9],"right_children":[2,4,6,8,-1,10,12,14,16,18,-1,-1,-1,-1,-1,-1,-1,-1,-1],"split_conditions":[4.46E1,7.3E1,1.16E2,3.15E1,-5.5842694E-2,9.3E-1,6.66E0,2.1E1,5.3E0,7.8E1,5.644958E-2,-5.2835684E-2,3.7434384E-2,1.0916537E-2,-9.758676E-3,1.9536844E-2,-4.0285293E-2,-4.9160462E-2,5.1289167E-2],"split_indices":[2,7,9,2,0,13,16,15,12,7,0,0,0,0,0,0,0,0,0],"split_type":[0,0,0,0,0,0,0,0,0,0,0,0,0,0,0,0,0,0,0],"sum_hessian":[4.643206E2,4.413587E2,2.296187E1,4.3045734E2,1.0901362E1,1.8825127E1,4.136743E0,3.5453897E2,7.591836E1,7.7199464E0,1.110518E1,2.4657936E0,1.6709496E0,2.3082843E2,1.23710556E2,2.5977243E1,4.9941113E1,2.4011679E0,5.3187785E0],"tree_param":{"num_deleted":"0","num_feature":"19","num_nodes":"19","size_leaf_vector":"1"}},{"base_weights":[-4.9364488E-3,-3.3816718E-2,7.47016E-1,8.541483E-2,-2.5960135E-1,1.2973106E0,-6.1522316E-2,-7.5691596E-2,1.3130435E-1,-7.544165E-1,3.377829E-1,4.968563E-1,7.8569904E-2,8.45763E-3,-7.595255E-2,-7.922613E-2,5.531932E-3,-6.943812E-2,2.404978E-2,-4.5085162E-2,5.8390867E-2],"categories":[],"categories_nodes":[],"categories_segments":[],"categories_sizes":[],"default_left":[0,0,1,0,0,0,0,0,0,0,0,0,0,0,0,0,0,0,0,0,0],"id":53,"left_children":[1,3,5,7,9,11,-1,-1,13,15,17,19,-1,-1,-1,-1,-1,-1,-1,-1,-1],"loss_changes":[1.009814E1,1.2072785E1,2.0311863E1,2.1752457E1,4.605492E1,2.277916E0,0E0,0E0,1.8147633E1,6.125277E1,1.8195602E1,5.762265E0,0E0,0E0,0E0,0E0,0E0,0E0,0E0,0E0,0E0],"parents":[2147483647,0,0,1,1,2,2,3,3,4,4,5,5,8,8,9,9,10,10,11,11],"right_children":[2,4,6,8,10,12,-1,-1,14,16,18,20,-1,-1,-1,-1,-1,-1,-1,-1,-1],"split_conditions":[6.4E1,2.1E1,1E0,1.7E-1,5.9E0,2E0,-6.1522316E-2,-7.5691596E-2,1.68E2,2.88E1,6.23E1,1.41E2,7.8569904E-2,8.45763E-3,-7.595255E-2,-7.922613E-2,5.531932E-3,-6.943812E-2,2.404978E-2,-4.5085162E-2,5.8390867E-2],"split_indices":[14,15,10,16,12,11,0,0,8,2,3,4,0,0,0,0,0,0,0,0,0],"split_type":[0,0,0,0,0,0,0,0,0,0,0,0,0,0,0,0,0,0,0,0,0],"sum_hessian":[4.628333E2,4.4663443E2,1.619888E1,2.9269226E2,1.5394217E2,1.2941443E1,3.257435E0,7.272083E0,2.8542017E2,8.405572E1,6.988646E1,4.018485E0,8.922958E0,2.7989865E2,5.52152E0,4.2469917E1,4.1585796E1,4.686745E0,6.5199715E1,1.191341E0,2.827144E0],"tree_param":{"num_deleted":"0","num_feature":"19","num_nodes":"21","size_leaf_vector":"1"}},{"base_weights":[-5.293351E-3,-6.0914237E-2,1.20608825E-2,3.1082466E-2,-5.5553794E-2,-1.2115524E-3,7.223748E-1,-3.367397E-2,2.3330718E-3,-5.0779272E-2,4.72042E-2],"categories":[],"categories_nodes":[],"categories_segments":[],"categories_sizes":[],"default_left":[0,0,0,0,0,0,0,0,0,0,0],"id":54,"left_children":[1,-1,3,5,-1,7,9,-1,-1,-1,-1],"loss_changes":[9.742241E0,0E0,9.788766E0,1.0045733E1,0E0,1.3898078E1,8.697204E0,0E0,0E0,0E0,0E0],"parents":[2147483647,0,0,2,2,3,3,5,5,6,6],"right_children":[2,-1,4,6,-1,8,10,-1,-1,-1,-1],"split_conditions":[8E0,-6.0914237E-2,1.79E2,1.61E2,-5.5553794E-2,5.7E1,2E0,-3.367397E-2,2.3330718E-3,-5.0779272E-2,4.72042E-2],"split_indices":[14,0,6,6,0,5,11,0,0,0,0],"split_type":[0,0,0,0,0,0,0,0,0,0,0],"sum_hessian":[4.6110452E2,5.5278654E0,4.5557666E2,4.489456E2,6.631073E0,4.298626E2,1.908297E1,2.7707365E1,4.0215524E2,1.753864E0,1.7329105E1],"tree_param":{"num_deleted":"0","num_feature":"19","num_nodes":"11","size_leaf_vector":"1"}},{"base_weights":[-5.3776214E-3,-6.5625064E-2,1.0502483E-2,-1.7220959E-2,8.130348E-1,4.8041555E-1,-7.0473656E-2,6.3999996E-2,-5.61198E-2,-6.4448975E-2,3.5406955E-2,-6.8210565E-2,-1.5896608E-3],"categories":[],"categories_nodes":[],"categories_segments":[],"categories_sizes":[],"default_left":[0,0,0,0,0,0,0,0,0,0,0,0,0],"id":55,"left_children":[1,-1,3,5,7,9,11,-1,-1,-1,-1,-1,-1],"loss_changes":[9.589958E0,0E0,1.0177226E1,1.1760899E1,1.52408085E1,1.8200644E1,2.0004425E1,0E0,0E0,0E0,0E0,0E0,0E0],"parents":[2147483647,0,0,2,2,3,3,4,4,5,5,6,6],"right_children":[2,-1,4,6,8,10,12,-1,-1,-1,-1,-1,-1],"split_conditions":[4.7E0,-6.5625064E-2,1.01E2,8.9E1,4.4E1,1.2E1,3.4E1,6.3999996E-2,-5.61198E-2,-6.4448975E-2,3.5406955E-2,-6.8210565E-2,-1.5896608E-3],"split_indices":[12,0,5,6,7,14,9,0,0,0,0,0,0],"split_type":[0,0,0,0,0,0,0,0,0,0,0,0,0],"sum_hessian":[4.60341E2,4.5454464E0,4.5579556E2,4.4152176E2,1.4273808E1,4.190509E1,3.9961667E2,1.1772163E1,2.501644E0,4.246878E0,3.7658215E1,1.0606145E1,3.8901053E2],"tree_param":{"num_deleted":"0","num_feature":"19","num_nodes":"13","size_leaf_vector":"1"}},{"base_weights":[-5.47053E-3,-3.6314897E-2,6.5448505E-1,-7.046767E-2,-1.0468232E-2,-5.9535123E-2,1.0362691E0,9.7493595E-1,-5.9986837E-2,-5.0539304E-2,1.2901751E0,-5.7059754E-2,6.493806E-2,-4.3240983E-2,-3.610903E-4,7.8768104E-2,3.6069985E-2],"categories":[],"categories_nodes":[],"categories_segments":[],"categories_sizes":[],"default_left":[0,0,0,0,0,0,0,0,0,0,0,0,0,0,0,0,0],"id":56,"left_children":[1,3,5,-1,7,-1,9,11,13,-1,15,-1,-1,-1,-1,-1,-1],"loss_changes":[9.39746E0,1.5631275E1,1.5755368E1,0E0,2.1223095E1,0E0,1.0459297E1,1.5743217E1,1.7571991E1,0E0,1.476677E0,0E0,0E0,0E0,0E0,0E0,0E0],"parents":[2147483647,0,0,1,1,2,2,4,4,6,6,7,7,8,8,10,10],"right_children":[2,4,6,-1,8,-1,10,12,14,-1,16,-1,-1,-1,-1,-1,-1],"split_conditions":[1E1,8.5E1,1E0,-7.046767E-2,8.7E1,-5.9535123E-2,6.5E1,1.5E1,5.7E1,-5.0539304E-2,7.22E1,-5.7059754E-2,6.493806E-2,-4.3240983E-2,-3.610903E-4,7.8768104E-2,3.6069985E-2],"split_indices":[11,6,10,0,6,0,5,14,5,0,3,0,0,0,0,0,0],"split_type":[0,0,0,0,0,0,0,0,0,0,0,0,0,0,0,0,0],"sum_hessian":[4.5949E2,4.3987643E2,1.9613546E1,7.1384206E0,4.32738E2,2.9992385E0,1.6614307E1,1.9811298E1,4.1292673E2,1.5044117E0,1.5109896E1,2.2943153E0,1.7516985E1,2.4459059E1,3.8846765E2,8.88511E0,6.224786E0],"tree_param":{"num_deleted":"0","num_feature":"19","num_nodes":"17","size_leaf_vector":"1"}},{"base_weights":[-5.4174494E-3,1.2708963E-1,-1.604479E-1,2.9031432E-1,-3.9821967E-1,-9.0471476E-1,3.0149508E-2,1.8630515E-1,1.1761318E0,-1.4672469E-1,-7.0513636E-2,-1.3012184E0,7.1077156E-1,1.1130677E-1,-6.619867E-2,2.31635E-2,-2.0849E-2,3.345011E-2,7.193554E-2,-3.222677E-2,2.14288E-2,-7.685607E-2,4.4841107E-2,7.257951E-2,-5.256158E-2,-2.7983824E-2,1.2850381E-2],"categories":[],"categories_nodes":[],"categories_segments":[],"categories_sizes":[],"default_left":[0,0,0,0,0,0,0,0,0,0,0,0,0,0,0,0,0,0,0,0,0,0,0,0,0,0,0],"id":57,"left_children":[1,3,5,7,9,11,13,15,17,19,-1,21,23,25,-1,-1,-1,-1,-1,-1,-1,-1,-1,-1,-1,-1,-1],"loss_changes":[9.462446E0,2.1412231E1,3.0136948E1,1.7293005E1,1.4886985E1,2.8664627E1,1.882432E1,2.8813751E1,1.6720238E0,1.41990385E1,0E0,1.9591839E1,1.3510333E1,1.5909316E1,0E0,0E0,0E0,0E0,0E0,0E0,0E0,0E0,0E0,0E0,0E0,0E0,0E0],"parents":[2147483647,0,0,1,1,2,2,3,3,4,4,5,5,6,6,7,7,8,8,9,9,11,11,12,12,13,13],"right_children":[2,4,6,8,10,12,14,16,18,20,-1,22,24,26,-1,-1,-1,-1,-1,-1,-1,-1,-1,-1,-1,-1,-1],"split_conditions":[1.4E0,3E0,2.54E0,1.29E0,5.8E1,1.148E2,1.956453E2,1.11E2,2.4E1,5E0,-7.0513636E-2,1.63E2,3.22E1,7.8E1,-6.619867E-2,2.31635E-2,-2.0849E-2,3.345011E-2,7.193554E-2,-3.222677E-2,2.14288E-2,-7.685607E-2,4.4841107E-2,7.257951E-2,-5.256158E-2,-2.7983824E-2,1.2850381E-2],"split_indices":[16,11,16,16,7,3,18,8,15,11,0,6,2,8,0,0,0,0,0,0,0,0,0,0,0,0,0],"split_type":[0,0,0,0,0,0,0,0,0,0,0,0,0,0,0,0,0,0,0,0,0,0,0,0,0,0,0],"sum_hessian":[4.5863223E2,2.4737605E2,2.1125616E2,1.8907408E2,5.8301968E1,4.230642E1,1.6894975E2,1.7028967E2,1.878442E1,4.76147E1,1.0687267E1,3.4125275E1,8.181144E0,1.6026247E2,8.687282E0,1.1686822E2,5.342145E1,7.6184363E0,1.1165983E1,2.5461973E1,2.2152727E1,3.1089323E1,3.0359523E0,5.883605E0,2.297539E0,2.808479E1,1.3217767E2],"tree_param":{"num_deleted":"0","num_feature":"19","num_nodes":"27","size_leaf_vector":"1"}},{"base_weights":[-5.3774337E-3,-2.7897352E-2,9.045641E-1,-6.827514E-2,5.449629E-1,6.554507E-2,-4.540659E-2,-1.3986887E-1,4.0502563E-1,-5.4401517E-2,7.136457E-1,1.6161156E-3,-2.2174401E-2,-1.6308734E-2,4.6686713E-2,-5.011448E-2,4.178856E-2],"categories":[],"categories_nodes":[],"categories_segments":[],"categories_sizes":[],"default_left":[0,0,0,0,0,0,0,0,0,0,0,0,0,0,0,0,0],"id":58,"left_children":[1,3,5,7,9,-1,-1,11,13,-1,15,-1,-1,-1,-1,-1,-1],"loss_changes":[9.398604E0,1.0384626E1,9.349481E0,1.4247074E1,8.920662E0,0E0,0E0,1.9070454E1,2.1675308E1,0E0,6.5799837E0,0E0,0E0,0E0,0E0,0E0,0E0],"parents":[2147483647,0,0,1,1,2,2,3,3,4,4,7,7,8,8,10,10],"right_children":[2,4,6,8,10,-1,-1,12,14,-1,16,-1,-1,-1,-1,-1,-1],"split_conditions":[6.2E1,8.2E0,1.06E2,1.5E2,7.13E1,6.554507E-2,-4.540659E-2,1.11E2,1.07E2,-5.4401517E-2,1.01E2,1.6161156E-3,-2.2174401E-2,-1.6308734E-2,4.6686713E-2,-5.011448E-2,4.178856E-2],"split_indices":[15,12,4,4,3,0,0,8,8,0,4,0,0,0,0,0,0],"split_type":[0,0,0,0,0,0,0,0,0,0,0,0,0,0,0,0,0],"sum_hessian":[4.5642035E2,4.4634326E2,1.0077098E1,4.1777725E2,2.8566017E1,8.457967E0,1.6191307E0,3.6349738E2,5.427987E1,2.1642344E0,2.6401783E1,2.3252135E2,1.3097603E2,2.2938776E1,3.1341095E1,1.2753466E0,2.5126436E1],"tree_param":{"num_deleted":"0","num_feature":"19","num_nodes":"17","size_leaf_vector":"1"}},{"base_weights":[-5.1552625E-3,-6.784252E-2,9.863509E-3,-4.497892E-2,6.2771714E-1,-7.347962E-2,-2.5869366E-3,-6.135444E-2,1.306891E0,-8.152205E-3,9.703278E-3,-7.2039105E-2,2.8707186E-2,2.6823474E-2,7.056006E-2],"categories":[],"categories_nodes":[],"categories_segments":[],"categories_sizes":[],"default_left":[0,0,0,0,0,0,0,0,0,0,0,0,0,0,0],"id":59,"left_children":[1,-1,3,5,7,-1,9,11,13,-1,-1,-1,-1,-1,-1],"loss_changes":[9.279539E0,0E0,1.5358299E1,2.5147669E1,1.7373219E1,0E0,1.2824888E1,1.7743423E1,7.4202347E-1,0E0,0E0,0E0,0E0,0E0,0E0],"parents":[2147483647,0,0,2,2,3,3,4,4,6,6,7,7,8,8],"right_children":[2,-1,4,6,8,-1,10,12,14,-1,-1,-1,-1,-1,-1],"split_conditions":[4.355281E1,-6.784252E-2,1.24E0,5.7E1,5.6E1,-7.347962E-2,1E0,2.61E1,1.09E2,-8.152205E-3,9.703278E-3,-7.2039105E-2,2.8707186E-2,2.6823474E-2,7.056006E-2],"split_indices":[18,0,13,8,0,0,10,2,4,0,0,0,0,0,0],"split_type":[0,0,0,0,0,0,0,0,0,0,0,0,0,0,0],"sum_hessian":[4.5544293E2,4.023052E0,4.5141986E2,4.154689E2,3.5950985E1,1.1032917E1,4.0443597E2,1.8297E1,1.7653986E1,2.2280817E2,1.8162779E2,5.371129E0,1.2925872E1,2.8377514E0,1.4816234E1],"tree_param":{"num_deleted":"0","num_feature":"19","num_nodes":"15","size_leaf_vector":"1"}},{"base_weights":[-5.1014647E-3,-3.769064E-2,6.1430043E-1,4.1361272E-2,-4.052619E-1,8.311081E-1,-3.499069E-1,7.170949E-2,-5.3368207E-2,-8.0101293E-1,3.2267118E-1,9.859748E-1,3.248966E-2,-5.1447745E-2,3.5212126E-2,-3.6750508E-3,1.6494421E-2,-7.7041322E-3,-8.143371E-2,6.353601E-2,-2.1280907E-2,1.9347565E-2,5.3142082E-2,-3.904008E-2,3.766657E-2],"categories":[],"categories_nodes":[],"categories_segments":[],"categories_sizes":[],"default_left":[0,0,0,0,0,0,0,0,0,0,0,0,0,0,0,0,0,0,0,0,0,0,0,0,0],"id":60,"left_children":[1,3,5,7,9,11,13,15,-1,17,19,21,23,-1,-1,-1,-1,-1,-1,-1,-1,-1,-1,-1,-1],"loss_changes":[9.220299E0,1.2621572E1,5.063739E0,1.2119751E1,2.2404217E1,2.3100405E0,4.228651E0,1.3120367E1,0E0,2.656736E1,2.0253353E1,3.1748295E-1,2.99759E0,0E0,0E0,0E0,0E0,0E0,0E0,0E0,0E0,0E0,0E0,0E0,0E0],"parents":[2147483647,0,0,1,1,2,2,3,3,4,4,5,5,6,6,7,7,9,9,10,10,11,11,12,12],"right_children":[2,4,6,8,10,12,14,16,-1,18,20,22,24,-1,-1,-1,-1,-1,-1,-1,-1,-1,-1,-1,-1],"split_conditions":[4.46E1,3.15E1,1.16E2,7.3E1,9.7E-1,1E0,6.66E0,5.6E1,-5.3368207E-2,7.1E-1,1E0,1.4E1,1.443E2,-5.1447745E-2,3.5212126E-2,-3.6750508E-3,1.6494421E-2,-7.7041322E-3,-8.143371E-2,6.353601E-2,-2.1280907E-2,1.9347565E-2,5.3142082E-2,-3.904008E-2,3.766657E-2],"split_indices":[2,2,9,7,13,10,16,7,0,13,13,14,3,0,0,0,0,0,0,0,0,0,0,0,0],"split_type":[0,0,0,0,0,0,0,0,0,0,0,0,0,0,0,0,0,0,0,0,0,0,0,0,0],"sum_hessian":[4.546246E2,4.3279282E2,2.1831785E1,3.5691925E2,7.587356E1,1.7936663E1,3.8951232E0,3.483203E2,8.59896E0,4.9086567E1,2.6786995E1,1.4826862E1,3.1097999E0,2.3835926E0,1.5115306E0,2.2339117E2,1.2492913E2,2.8217167E1,2.08694E1,1.1508311E1,1.5278684E1,2.3724458E0,1.2454416E1,1.4221151E0,1.6876849E0],"tree_param":{"num_deleted":"0","num_feature":"19","num_nodes":"25","size_leaf_vector":"1"}},{"base_weights":[-4.9457154E-3,-2.6770715E-2,8.858891E-1,8.5723735E-2,-2.3426254E-1,6.400367E-2,-4.4024434E-2,-7.2227314E-2,1.290201E-1,-7.484078E-2,-6.1252184E-2,8.23476E-3,-7.2271526E-2,2.220735E-2,-2.2893565E-2],"categories":[],"categories_nodes":[],"categories_segments":[],"categories_sizes":[],"default_left":[0,0,0,0,0,0,0,0,0,0,0,0,0,0,0],"id":61,"left_children":[1,3,5,7,9,-1,-1,-1,11,-1,13,-1,-1,-1,-1],"loss_changes":[8.848914E0,1.0384474E1,8.705416E0,1.9311476E1,3.406517E1,0E0,0E0,0E0,1.6057064E1,0E0,2.7979502E1,0E0,0E0,0E0,0E0],"parents":[2147483647,0,0,1,1,2,2,3,3,4,4,8,8,10,10],"right_children":[2,4,6,8,10,-1,-1,-1,12,-1,14,-1,-1,-1,-1],"split_conditions":[6.2E1,2.1E1,1.06E2,1.7E-1,6.23E1,6.400367E-2,-4.4024434E-2,-7.2227314E-2,1.68E2,-7.484078E-2,9.7E1,8.23476E-3,-7.2271526E-2,2.220735E-2,-2.2893565E-2],"split_indices":[15,15,4,16,3,0,0,0,8,0,6,0,0,0,0],"split_type":[0,0,0,0,0,0,0,0,0,0,0,0,0,0,0],"sum_hessian":[4.5291345E2,4.4302942E2,9.884046E0,2.8765842E2,1.5537099E2,8.305831E0,1.5782146E0,7.0243707E0,2.8063406E2,1.7802757E1,1.3756822E2,2.752917E2,5.3423715E0,6.0436314E1,7.713191E1],"tree_param":{"num_deleted":"0","num_feature":"19","num_nodes":"15","size_leaf_vector":"1"}},{"base_weights":[-5.1696273E-3,-3.5352565E-2,6.415164E-1,-6.783923E-2,-1.07520325E-2,-5.7326376E-2,1.0058482E0,9.336776E-1,-5.7395436E-2,-4.889981E-2,1.2498822E0,-5.4683685E-2,6.2382646E-2,-4.0191226E-2,-4.2577233E-4,7.582196E-2,3.556731E-2],"categories":[],"categories_nodes":[],"categories_segments":[],"categories_sizes":[],"default_left":[0,0,0,0,0,0,0,0,0,0,0,0,0,0,0,0,0],"id":62,"left_children":[1,3,5,-1,7,-1,9,11,13,-1,15,-1,-1,-1,-1,-1,-1],"loss_changes":[8.859952E0,1.4078038E1,1.4339368E1,0E0,1.8845854E1,0E0,9.620939E0,1.4181311E1,1.4859635E1,0E0,1.2018242E0,0E0,0E0,0E0,0E0,0E0,0E0],"parents":[2147483647,0,0,1,1,2,2,4,4,6,6,7,7,8,8,10,10],"right_children":[2,4,6,-1,8,-1,10,12,14,-1,16,-1,-1,-1,-1,-1,-1],"split_conditions":[1E1,8.5E1,1E0,-6.783923E-2,8.7E1,-5.7326376E-2,6.5E1,1.5E1,5.7E1,-4.889981E-2,7.22E1,-5.4683685E-2,6.2382646E-2,-4.0191226E-2,-4.2577233E-4,7.582196E-2,3.556731E-2],"split_indices":[11,6,10,0,6,0,5,14,5,0,3,0,0,0,0,0,0],"split_type":[0,0,0,0,0,0,0,0,0,0,0,0,0,0,0,0,0],"sum_hessian":[4.51755E2,4.3251352E2,1.924148E1,6.915049E0,4.2559848E2,2.8935876E0,1.6347893E1,1.9135145E1,4.0646335E2,1.461247E0,1.4886646E1,2.2330344E0,1.6902111E1,2.403214E1,3.8243118E2,8.743203E0,6.143443E0],"tree_param":{"num_deleted":"0","num_feature":"19","num_nodes":"17","size_leaf_vector":"1"}},{"base_weights":[-5.1211705E-3,-3.6540534E-2,6.0385585E-1,-1.0344831E-2,-5.3746786E-2,8.159134E-1,-3.300752E-1,6.800102E-2,-3.7599802E-1,9.6713835E-1,4.3333426E-2,-5.0264146E-2,3.50332E-2,-3.4577993E-3,1.5616064E-2,1.8212821E-2,-3.815814E-2,1.8713983E-2,5.226711E-2,-3.821532E-2,3.7442874E-2],"categories":[],"categories_nodes":[],"categories_segments":[],"categories_sizes":[],"default_left":[0,0,0,0,0,0,0,0,0,0,0,0,0,0,0,0,0,0,0,0,0],"id":63,"left_children":[1,3,5,7,-1,9,11,13,15,17,19,-1,-1,-1,-1,-1,-1,-1,-1,-1,-1],"loss_changes":[8.667182E0,1.1701913E1,4.670866E0,1.2086605E1,0E0,2.1078558E0,4.0620527E0,1.1668852E1,2.1613577E1,3.200302E-1,2.8852084E0,0E0,0E0,0E0,0E0,0E0,0E0,0E0,0E0,0E0,0E0],"parents":[2147483647,0,0,1,1,2,2,3,3,5,5,6,6,7,7,8,8,9,9,10,10],"right_children":[2,4,6,8,-1,10,12,14,16,18,20,-1,-1,-1,-1,-1,-1,-1,-1,-1,-1],"split_conditions":[4.46E1,7.3E1,1.16E2,3.15E1,-5.3746786E-2,1E0,6.66E0,5.6E1,5.3E0,1.4E1,1.443E2,-5.0264146E-2,3.50332E-2,-3.4577993E-3,1.5616064E-2,1.8212821E-2,-3.815814E-2,1.8713983E-2,5.226711E-2,-3.821532E-2,3.7442874E-2],"split_indices":[2,7,9,2,0,10,16,7,12,14,3,0,0,0,0,0,0,0,0,0,0],"split_type":[0,0,0,0,0,0,0,0,0,0,0,0,0,0,0,0,0,0,0,0,0],"sum_hessian":[4.5082736E2,4.2960257E2,2.1224781E1,4.2001672E2,9.585844E0,1.740026E1,3.8245206E0,3.4657306E2,7.3443665E1,1.4341268E1,3.0589926E0,2.3257113E0,1.4988095E0,2.2242476E2,1.24148315E2,2.524146E1,4.8202198E1,2.3455732E0,1.1995694E1,1.387431E0,1.6715616E0],"tree_param":{"num_deleted":"0","num_feature":"19","num_nodes":"21","size_leaf_vector":"1"}},{"base_weights":[-4.8942477E-3,1.2260187E-1,-1.5428038E-1,2.7786958E-1,-3.804951E-1,-8.661599E-1,2.5398862E-2,1.7769597E-1,1.1350658E0,-5.378102E-1,1.0515938E0,-1.2542907E0,7.010552E-1,1.01686954E-1,-6.399628E-2,2.1782367E-2,-1.9198779E-2,1.984956E-2,6.418147E-2,-5.0020244E-2,1.3105974E-2,2.2008069E-2,6.343322E-2,-7.4206814E-2,4.318202E-2,6.970071E-2,-4.9733814E-2,1.9923141E-2,-1.0548352E-2],"categories":[],"categories_nodes":[],"categories_segments":[],"categories_sizes":[],"default_left":[0,0,0,0,0,0,0,0,0,0,0,0,0,0,0,0,0,0,0,0,0,0,0,0,0,0,0,0,0],"id":64,"left_children":[1,3,5,7,9,11,13,15,17,19,21,23,25,27,-1,-1,-1,-1,-1,-1,-1,-1,-1,-1,-1,-1,-1,-1,-1],"loss_changes":[8.598582E0,1.9134281E1,2.6610603E1,1.5832154E1,1.3603434E1,2.6379377E1,1.6754995E1,2.4561895E1,1.6124096E0,1.9802483E1,2.4673557E-1,1.7812675E1,1.1918439E1,1.4805507E1,0E0,0E0,0E0,0E0,0E0,0E0,0E0,0E0,0E0,0E0,0E0,0E0,0E0,0E0,0E0],"parents":[2147483647,0,0,1,1,2,2,3,3,4,4,5,5,6,6,7,7,8,8,9,9,10,10,11,11,12,12,13,13],"right_children":[2,4,6,8,10,12,14,16,18,20,22,24,26,28,-1,-1,-1,-1,-1,-1,-1,-1,-1,-1,-1,-1,-1,-1,-1],"split_conditions":[1.4E0,3E0,2.54E0,1.29E0,1.43E0,1.148E2,1.956453E2,1.11E2,4.6E1,1.27E2,2E0,1.63E2,3.22E1,2.35E1,-6.399628E-2,2.1782367E-2,-1.9198779E-2,1.984956E-2,6.418147E-2,-5.0020244E-2,1.3105974E-2,2.2008069E-2,6.343322E-2,-7.4206814E-2,4.318202E-2,6.970071E-2,-4.9733814E-2,1.9923141E-2,-1.0548352E-2],"split_indices":[16,11,16,16,13,3,18,8,7,8,1,6,2,2,0,0,0,0,0,0,0,0,0,0,0,0,0,0,0],"split_type":[0,0,0,0,0,0,0,0,0,0,0,0,0,0,0,0,0,0,0,0,0,0,0,0,0,0,0,0,0],"sum_hessian":[4.4946722E2,2.4259753E2,2.0686967E2,1.8572581E2,5.6871727E1,4.0921257E1,1.6594843E2,1.6737352E2,1.8352293E1,5.180536E1,5.066366E0,3.2958534E1,7.962721E0,1.5765648E2,8.291942E0,1.1485156E2,5.2521965E1,3.6903856E0,1.4661906E1,3.2664852E1,1.9140507E1,2.1206822E0,2.945684E0,3.0001875E1,2.9566603E0,5.7790465E0,2.1836743E0,8.0741234E1,7.6915245E1],"tree_param":{"num_deleted":"0","num_feature":"19","num_nodes":"29","size_leaf_vector":"1"}},{"base_weights":[-4.57362E-3,-3.1551372E-2,6.985596E-1,2.509891E-1,-1.2731217E-1,1.2191452E0,-5.8561053E-2,-7.390875E-1,4.6586427E-1,-6.4453936E-1,-2.434834E-3,4.578121E-1,7.371914E-2,-7.665874E-2,2.1248484E-2,-4.282367E-2,3.1381253E-2,-4.8474338E-2,4.3933436E-2,1.7621337E-2,-1.38038965E-2,-4.1961405E-2,5.439871E-2],"categories":[],"categories_nodes":[],"categories_segments":[],"categories_sizes":[],"default_left":[0,0,1,0,0,0,0,0,0,0,0,0,0,0,0,0,0,0,0,0,0,0,0],"id":65,"left_children":[1,3,5,7,9,11,-1,13,15,17,19,21,-1,-1,-1,-1,-1,-1,-1,-1,-1,-1,-1],"loss_changes":[8.524818E0,1.173762E1,1.7591888E1,2.3714664E1,2.0911915E1,1.9443512E0,0E0,1.9116882E1,1.9976196E1,3.2018166E1,2.552158E1,4.864706E0,0E0,0E0,0E0,0E0,0E0,0E0,0E0,0E0,0E0,0E0,0E0],"parents":[2147483647,0,0,1,1,2,2,3,3,4,4,5,5,7,7,8,8,9,9,10,10,11,11],"right_children":[2,4,6,8,10,12,-1,14,16,18,20,22,-1,-1,-1,-1,-1,-1,-1,-1,-1,-1,-1],"split_conditions":[6.4E1,6.3E1,1E0,4.5E1,5.3E-1,2E0,-5.8561053E-2,9.9E-1,1.7E1,9.3E1,1.4E0,1.41E2,7.371914E-2,-7.665874E-2,2.1248484E-2,-4.282367E-2,3.1381253E-2,-4.8474338E-2,4.3933436E-2,1.7621337E-2,-1.38038965E-2,-4.1961405E-2,5.439871E-2],"split_indices":[14,5,10,7,16,11,0,13,15,5,16,4,0,0,0,0,0,0,0,0,0,0,0],"split_type":[0,0,0,0,0,0,0,0,0,0,0,0,0,0,0,0,0,0,0,0,0,0,0],"sum_hessian":[4.4724704E2,4.3164102E2,1.5606038E1,1.08852554E2,3.2278845E2,1.2479469E1,3.1265686E0,1.8976276E1,8.987628E1,6.196702E1,2.6082144E2,3.8347337E0,8.644735E0,1.1092315E1,7.883963E0,9.328052E0,8.0548225E1,5.1371426E1,1.0595591E1,1.1343305E2,1.4738838E2,1.1454105E0,2.6893232E0],"tree_param":{"num_deleted":"0","num_feature":"19","num_nodes":"23","size_leaf_vector":"1"}},{"base_weights":[-4.45207E-3,-3.39061E-2,6.317348E-1,-6.557444E-2,-1.0476293E-2,-5.4832604E-2,9.7735626E-1,6.995548E-1,-6.965414E-2,-4.7195956E-2,1.211915E0,-5.6009542E-2,4.6655845E-2,-6.838953E-2,-8.798043E-4,7.306259E-2,3.515394E-2],"categories":[],"categories_nodes":[],"categories_segments":[],"categories_sizes":[],"default_left":[0,0,0,0,0,0,0,0,0,0,0,0,0,0,0,0,0],"id":66,"left_children":[1,3,5,-1,7,-1,9,11,13,-1,15,-1,-1,-1,-1,-1,-1],"loss_changes":[8.394828E0,1.2798918E1,1.2914133E1,0E0,1.77525E1,0E0,8.8272705E0,1.486084E1,2.6320131E1,0E0,9.55904E-1,0E0,0E0,0E0,0E0,0E0,0E0],"parents":[2147483647,0,0,1,1,2,2,4,4,6,6,7,7,8,8,10,10],"right_children":[2,4,6,-1,8,-1,10,12,14,-1,16,-1,-1,-1,-1,-1,-1],"split_conditions":[1E1,8.5E1,1E0,-6.557444E-2,8.9E1,-5.4832604E-2,6.5E1,1.2E1,3.7E1,-4.7195956E-2,7.22E1,-5.6009542E-2,4.6655845E-2,-6.838953E-2,-8.798043E-4,7.306259E-2,3.515394E-2],"split_indices":[11,6,10,0,6,0,5,14,9,0,3,0,0,0,0,0,0],"split_type":[0,0,0,0,0,0,0,0,0,0,0,0,0,0,0,0,0],"sum_hessian":[4.458614E2,4.270372E2,1.8824163E1,6.7004275E0,4.203368E2,2.7748225E0,1.6049341E1,3.1505417E1,3.8883136E2,1.4171562E0,1.4632185E1,3.151911E0,2.8353506E1,1.4017292E1,3.748141E2,8.56397E0,6.0682154E0],"tree_param":{"num_deleted":"0","num_feature":"19","num_nodes":"17","size_leaf_vector":"1"}},{"base_weights":[-4.565891E-3,-6.527629E-2,9.779389E-3,-4.2581074E-2,6.0298914E-1,-7.067622E-2,-2.6499669E-3,-6.895172E-2,1.2602034E0,1.304579E-3,-5.4025125E-2,-6.877828E-2,2.667532E-2,2.6232151E-2,6.793448E-2],"categories":[],"categories_nodes":[],"categories_segments":[],"categories_sizes":[],"default_left":[0,0,0,0,0,0,0,0,0,0,0,0,0,0,0],"id":67,"left_children":[1,-1,3,5,7,-1,9,11,13,-1,-1,-1,-1,-1,-1],"loss_changes":[8.329392E0,0E0,1.3747131E1,2.2269432E1,1.5938934E1,0E0,1.2306857E1,1.54520235E1,6.055412E-1,0E0,0E0,0E0,0E0,0E0,0E0],"parents":[2147483647,0,0,2,2,3,3,4,4,6,6,7,7,8,8],"right_children":[2,-1,4,6,8,-1,10,12,14,-1,-1,-1,-1,-1,-1],"split_conditions":[4.355281E1,-6.527629E-2,1.24E0,5.7E1,5.6E1,-7.067622E-2,1.16E0,2.61E1,1.09E2,1.304579E-3,-5.4025125E-2,-6.877828E-2,2.667532E-2,2.6232151E-2,6.793448E-2],"split_indices":[18,0,13,8,0,0,13,2,4,0,0,0,0,0,0],"split_type":[0,0,0,0,0,0,0,0,0,0,0,0,0,0,0],"sum_hessian":[4.4462976E2,3.8676634E0,4.407621E2,4.05866E2,3.4896095E1,1.0513399E1,3.953526E2,1.7697311E1,1.7198782E1,3.8603458E2,9.318037E0,5.1798897E0,1.2517422E1,2.7779922E0,1.4420791E1],"tree_param":{"num_deleted":"0","num_feature":"19","num_nodes":"15","size_leaf_vector":"1"}},{"base_weights":[-4.6631563E-3,-3.5288353E-2,5.9872216E-1,-1.0227298E-2,-5.3006757E-2,3.8756207E-2,9.6097356E-1,1.051751E-2,-6.290866E-2,-5.3831566E-2,4.867228E-2,5.4251086E-2,1.082038E-2,-1.9099315E-3,2.6436007E-2],"categories":[],"categories_nodes":[],"categories_segments":[],"categories_sizes":[],"default_left":[0,0,0,0,0,0,0,0,0,0,0,0,0,0,0],"id":68,"left_children":[1,3,5,7,-1,9,11,13,-1,-1,-1,-1,-1,-1,-1],"loss_changes":[8.240743E0,1.0886036E1,4.332496E0,1.0760904E1,0E0,1.0956124E1,9.6942043E-1,1.0354356E1,0E0,0E0,0E0,0E0,0E0,0E0,0E0],"parents":[2147483647,0,0,1,1,2,2,3,3,5,5,6,6,7,7],"right_children":[2,4,6,8,-1,10,12,14,-1,-1,-1,-1,-1,-1,-1],"split_conditions":[4.46E1,7.3E1,1E0,4.08E1,-5.3006757E-2,7.8E1,1.14E2,6.8E1,-6.290866E-2,-5.3831566E-2,4.867228E-2,5.4251086E-2,1.082038E-2,-1.9099315E-3,2.6436007E-2],"split_indices":[2,7,13,2,0,7,9,7,0,0,0,0,0,0,0],"split_type":[0,0,0,0,0,0,0,0,0,0,0,0,0,0,0],"sum_hessian":[4.4381342E2,4.232715E2,2.0541891E1,4.14154E2,9.117519E0,8.503783E0,1.2038108E1,4.0835736E2,5.79662E0,3.8078837E0,4.6959E0,9.926973E0,2.1111345E0,3.7411334E2,3.424404E1],"tree_param":{"num_deleted":"0","num_feature":"19","num_nodes":"15","size_leaf_vector":"1"}},{"base_weights":[-4.5141545E-3,-3.0011771E-2,7.1651876E-1,2.256755E-1,-1.1723564E-1,1.1729225E0,-5.4380197E-2,-7.242781E-1,4.3109286E-1,-6.305819E-1,7.1349666E-3,6.566718E-2,2.7706776E-2,-7.433072E-2,1.9983454E-2,-1.9390399E-2,3.408445E-2,-6.574004E-2,-2.987328E-3,1.6450211E-2,-1.1950619E-2],"categories":[],"categories_nodes":[],"categories_segments":[],"categories_sizes":[],"default_left":[0,0,0,0,0,0,0,0,0,0,0,0,0,0,0,0,0,0,0,0,0],"id":69,"left_children":[1,3,5,7,9,11,-1,13,15,17,19,-1,-1,-1,-1,-1,-1,-1,-1,-1,-1],"loss_changes":[8.176089E0,9.602169E0,1.3783027E1,2.1690733E1,2.0486584E1,3.6740303E-1,0E0,1.7603455E1,1.8878218E1,2.4362467E1,2.0616858E1,0E0,0E0,0E0,0E0,0E0,0E0,0E0,0E0,0E0,0E0],"parents":[2147483647,0,0,1,1,2,2,3,3,4,4,5,5,7,7,8,8,9,9,10,10],"right_children":[2,4,6,8,10,12,-1,14,16,18,20,-1,-1,-1,-1,-1,-1,-1,-1,-1,-1],"split_conditions":[1.01E2,6.3E1,4.4E1,4.5E1,5.3E-1,8.4E-1,-5.4380197E-2,9.9E-1,5.7E1,5.6E0,1.4E0,6.566718E-2,2.7706776E-2,-7.433072E-2,1.9983454E-2,-1.9390399E-2,3.408445E-2,-6.574004E-2,-2.987328E-3,1.6450211E-2,-1.1950619E-2],"split_indices":[5,5,7,7,16,16,0,13,5,12,16,0,0,0,0,0,0,0,0,0,0],"split_type":[0,0,0,0,0,0,0,0,0,0,0,0,0,0,0,0,0,0,0,0,0],"sum_hessian":[4.4255472E2,4.28365E2,1.4189733E1,1.08556404E2,3.1980856E2,1.1604032E1,2.5857017E0,1.885153E1,8.970487E1,6.1576817E1,2.5823175E2,8.542937E0,3.061094E0,1.104047E1,7.8110595E0,2.0890646E1,6.881423E1,2.741416E1,3.416266E1,1.1175766E2,1.464741E2],"tree_param":{"num_deleted":"0","num_feature":"19","num_nodes":"21","size_leaf_vector":"1"}},{"base_weights":[-4.4587418E-3,1.263223E-2,-5.3335935E-2,-1.8697571E-2,6.831803E-1,-6.936029E-1,1.9111663E-2,-4.9132604E-2,9.113427E-1,2.989509E-3,-6.7749254E-2,2.1572995E-3,-6.325103E-2,-4.117844E-2,5.3942647E-2],"categories":[],"categories_nodes":[],"categories_segments":[],"categories_sizes":[],"default_left":[0,0,0,0,0,0,0,0,0,0,0,0,0,0,0],"id":70,"left_children":[1,3,-1,5,7,9,11,-1,13,-1,-1,-1,-1,-1,-1],"loss_changes":[8.040804E0,9.1752825E0,0E0,1.0670608E1,8.305089E0,1.1134271E1,1.2290733E1,0E0,6.022254E0,0E0,0E0,0E0,0E0,0E0,0E0],"parents":[2147483647,0,0,1,1,3,3,4,4,5,5,6,6,8,8],"right_children":[2,4,-1,6,8,10,12,-1,14,-1,-1,-1,-1,-1,-1],"split_conditions":[1.79E2,1.61E2,-5.3335935E-2,1.4E1,2E0,9.6E1,2.42E2,-4.9132604E-2,4.5E1,2.989509E-3,-6.7749254E-2,2.1572995E-3,-6.325103E-2,-4.117844E-2,5.3942647E-2],"split_indices":[6,6,0,15,11,6,9,0,7,0,0,0,0,0,0],"split_type":[0,0,0,0,0,0,0,0,0,0,0,0,0,0,0],"sum_hessian":[4.411539E2,4.3514093E2,6.0129848E0,4.166462E2,1.849471E1,2.1182787E1,3.954634E2,1.8296292E0,1.6665081E1,1.0327796E1,1.0854991E1,3.891464E2,6.317018E0,1.1225233E0,1.5542559E1],"tree_param":{"num_deleted":"0","num_feature":"19","num_nodes":"15","size_leaf_vector":"1"}},{"base_weights":[-4.7622756E-3,-3.0969037E-2,6.807562E-1,8.444594E-2,-2.530819E-1,1.1850504E0,-5.700603E-2,-6.766655E-2,1.2425807E-1,-7.0007205E-1,2.7796346E-1,4.4226667E-1,7.157187E-2,7.904677E-3,-6.8824835E-2,-7.405506E-2,4.9430793E-3,2.3504306E-2,-4.0878344E-2,-4.0607616E-2,5.279097E-2],"categories":[],"categories_nodes":[],"categories_segments":[],"categories_sizes":[],"default_left":[0,0,1,0,0,0,0,0,0,0,0,0,0,0,0,0,0,0,0,0,0],"id":71,"left_children":[1,3,5,7,9,11,-1,-1,13,15,17,19,-1,-1,-1,-1,-1,-1,-1,-1,-1],"loss_changes":[7.9452386E0,1.0936777E1,1.630478E1,1.625E1,3.481497E1,1.7905979E0,0E0,0E0,1.4146004E1,4.9738575E1,1.456469E1,4.5100965E0,0E0,0E0,0E0,0E0,0E0,0E0,0E0,0E0,0E0],"parents":[2147483647,0,0,1,1,2,2,3,3,4,4,5,5,8,8,9,9,10,10,11,11],"right_children":[2,4,6,8,10,12,-1,-1,14,16,18,20,-1,-1,-1,-1,-1,-1,-1,-1,-1],"split_conditions":[6.4E1,2.1E1,1E0,1.7E-1,5.9E0,2E0,-5.700603E-2,-6.766655E-2,1.68E2,2.88E1,3.4E1,1.41E2,7.157187E-2,7.904677E-3,-6.8824835E-2,-7.405506E-2,4.9430793E-3,2.3504306E-2,-4.0878344E-2,-4.0607616E-2,5.279097E-2],"split_indices":[14,15,10,16,12,11,0,0,8,2,14,4,0,0,0,0,0,0,0,0,0],"split_type":[0,0,0,0,0,0,0,0,0,0,0,0,0,0,0,0,0,0,0,0,0],